{"learner":{"attributes":{},"feature_names":["gender","age","hypertension","heart_disease","smoking_history","bmi","HbA1c_level","blood_glucose_level"],"feature_types":["int","float","int","int","int","float","float","float"],"gradient_booster":{"model":{"gbtree_model_param":{"num_parallel_tree":"1","num_trees":"200"},"iteration_indptr":[0,1,2,3,4,5,6,7,8,9,10,11,12,13,14,15,16,17,18,19,20,21,22,23,24,25,26,27,28,29,30,31,32,33,34,35,36,37,38,39,40,41,42,43,44,45,46,47,48,49,50,51,52,53,54,55,56,57,58,59,60,61,62,63,64,65,66,67,68,69,70,71,72,73,74,75,76,77,78,79,80,81,82,83,84,85,86,87,88,89,90,91,92,93,94,95,96,97,98,99,100,101,102,103,104,105,106,107,108,109,110,111,112,113,114,115,116,117,118,119,120,121,122,123,124,125,126,127,128,129,130,131,132,133,134,135,136,137,138,139,140,141,142,143,144,145,146,147,148,149,150,151,152,153,154,155,156,157,158,159,160,161,162,163,164,165,166,167,168,169,170,171,172,173,174,175,176,177,178,179,180,181,182,183,184,185,186,187,188,189,190,191,192,193,194,195,196,197,198,199,200],"tree_info":[0,0,0,0,0,0,0,0,0,0,0,0,0,0,0,0,0,0,0,0,0,0,0,0,0,0,0,0,0,0,0,0,0,0,0,0,0,0,0,0,0,0,0,0,0,0,0,0,0,0,0,0,0,0,0,0,0,0,0,0,0,0,0,0,0,0,0,0,0,0,0,0,0,0,0,0,0,0,0,0,0,0,0,0,0,0,0,0,0,0,0,0,0,0,0,0,0,0,0,0,0,0,0,0,0,0,0,0,0,0,0,0,0,0,0,0,0,0,0,0,0,0,0,0,0,0,0,0,0,0,0,0,0,0,0,0,0,0,0,0,0,0,0,0,0,0,0,0,0,0,0,0,0,0,0,0,0,0,0,0,0,0,0,0,0,0,0,0,0,0,0,0,0,0,0,0,0,0,0,0,0,0,0,0,0,0,0,0,0,0,0,0,0,0,0,0,0,0,0,0],"trees":[{"base_weights":[-3.519168E-5,-5.8660376E-1,2.0775504E-2,-9.841582E-1,2.0772362E-2,-1.9275459E-2,-5.4590636E-1,-1.5099463E0,9.0147346E-2,-1.666711E-2,-6.1435583E-3,-1.9265102E-2,4.51377E-3],"categories":[],"categories_nodes":[],"categories_segments":[],"categories_sizes":[],"default_left":[0,0,0,0,0,0,0,0,0,0,0,0,0],"id":0,"left_children":[1,3,-1,5,-1,-1,7,9,11,-1,-1,-1,-1],"loss_changes":[4.2938406E4,2.9100678E4,0E0,9.884092E3,0E0,0E0,1.0011434E4,9.101719E2,7.16739E3,0E0,0E0,0E0,0E0],"parents":[2147483647,0,0,1,1,3,3,6,6,7,7,8,8],"right_children":[2,4,-1,6,-1,-1,8,10,12,-1,-1,-1,-1],"split_conditions":[1.1885052E0,2.0129232E0,2.0775504E-2,1.6110802E-1,2.0772362E-2,-1.9275459E-2,4.4E1,8.075086E-1,-2.962091E-1,-1.666711E-2,-6.1435583E-3,-1.9265102E-2,4.51377E-3],"split_indices":[6,7,0,6,0,0,1,5,7,0,0,0,0],"split_type":[0,0,0,0,0,0,0,0,0,0,0,0,0],"sum_hessian":[3.523251E4,2.7475906E4,7.756605E3,2.3908418E4,3.567489E3,7.582599E3,1.6325818E4,6.4891353E3,9.836683E3,5.521744E3,9.673912E2,1.493652E3,8.343031E3],"tree_param":{"num_deleted":"0","num_feature":"8","num_nodes":"13","size_leaf_vector":"1"}},{"base_weights":[-4.0640025E-5,-5.8090633E-1,2.0553922E-2,-9.747344E-1,2.0550849E-2,-1.9098355E-2,-5.405819E-1,-1.3379647E0,2.1445511E-1,-1.5320409E-2,-4.1226493E-3,-1.9084862E-2,5.6399326E-3],"categories":[],"categories_nodes":[],"categories_segments":[],"categories_sizes":[],"default_left":[0,0,0,0,0,0,0,0,0,0,0,0,0],"id":1,"left_children":[1,3,-1,5,-1,-1,7,9,11,-1,-1,-1,-1],"loss_changes":[4.2064586E4,2.851855E4,0E0,9.701533E3,0E0,0E0,9.827554E3,1.4256533E3,6.2231123E3,0E0,0E0,0E0,0E0],"parents":[2147483647,0,0,1,1,3,3,6,6,7,7,8,8],"right_children":[2,4,-1,6,-1,-1,8,10,12,-1,-1,-1,-1],"split_conditions":[1.1885052E0,2.0129232E0,2.0553922E-2,1.6110802E-1,2.0550849E-2,-1.9098355E-2,5E1,7.818937E-1,-2.962091E-1,-1.5320409E-2,-4.1226493E-3,-1.9084862E-2,5.6399326E-3],"split_indices":[6,7,0,6,0,0,1,5,7,0,0,0,0],"split_type":[0,0,0,0,0,0,0,0,0,0,0,0,0],"sum_hessian":[3.523002E4,2.7468217E4,7.761805E3,2.3898336E4,3.5698806E3,7.576425E3,1.6321911E4,7.937971E3,8.383939E3,6.5616445E3,1.376327E3,1.1846198E3,7.19932E3],"tree_param":{"num_deleted":"0","num_feature":"8","num_nodes":"13","size_leaf_vector":"1"}},{"base_weights":[-4.5483248E-5,-5.75329E-1,2.0339187E-2,-9.654945E-1,2.0336179E-2,-1.8926214E-2,-5.353414E-1,-1.4831738E0,8.9233585E-2,-1.6657742E-2,-7.3790476E-3,-1.892723E-2,4.435382E-3],"categories":[],"categories_nodes":[],"categories_segments":[],"categories_sizes":[],"default_left":[0,0,0,0,0,0,0,0,0,0,0,0,0],"id":2,"left_children":[1,3,-1,5,-1,-1,7,9,11,-1,-1,-1,-1],"loss_changes":[4.12167E4,2.7952488E4,0E0,9.525258E3,0E0,0E0,9.660279E3,8.808467E2,6.908749E3,0E0,0E0,0E0,0E0],"parents":[2147483647,0,0,1,1,3,3,6,6,7,7,8,8],"right_children":[2,4,-1,6,-1,-1,8,10,12,-1,-1,-1,-1],"split_conditions":[1.1885052E0,2.0129232E0,2.0339187E-2,1.6110802E-1,2.0336179E-2,-1.8926214E-2,4.4E1,4.7903457E-1,-2.962091E-1,-1.6657742E-2,-7.3790476E-3,-1.892723E-2,4.435382E-3],"split_indices":[6,7,0,6,0,0,1,5,7,0,0,0,0],"split_type":[0,0,0,0,0,0,0,0,0,0,0,0,0],"sum_hessian":[3.522275E4,2.7457443E4,7.7653066E3,2.3885953E4,3.571491E3,7.5689277E3,1.6317024E4,6.4807295E3,9.836295E3,5.20436E3,1.2763695E3,1.4910602E3,8.345235E3],"tree_param":{"num_deleted":"0","num_feature":"8","num_nodes":"13","size_leaf_vector":"1"}},{"base_weights":[-5.0428305E-5,-5.6987035E-1,2.0130996E-2,-9.564371E-1,2.0128045E-2,-1.8758833E-2,-5.301871E-1,-1.314161E0,2.1117228E-1,-1.5053487E-2,-4.032702E-3,-1.8745657E-2,5.5373544E-3],"categories":[],"categories_nodes":[],"categories_segments":[],"categories_sizes":[],"default_left":[0,0,0,0,0,0,0,0,0,0,0,0,0],"id":3,"left_children":[1,3,-1,5,-1,-1,7,9,11,-1,-1,-1,-1],"loss_changes":[4.0393695E4,2.7401941E4,0E0,9.354869E3,0E0,0E0,9.480966E3,1.3801201E3,5.9919287E3,0E0,0E0,0E0,0E0],"parents":[2147483647,0,0,1,1,3,3,6,6,7,7,8,8],"right_children":[2,4,-1,6,-1,-1,8,10,12,-1,-1,-1,-1],"split_conditions":[1.1885052E0,2.0129232E0,2.0130996E-2,1.6110802E-1,2.0128045E-2,-1.8758833E-2,5E1,7.818937E-1,-2.962091E-1,-1.5053487E-2,-4.032702E-3,-1.8745657E-2,5.5373544E-3],"split_indices":[6,7,0,6,0,0,1,5,7,0,0,0,0],"split_type":[0,0,0,0,0,0,0,0,0,0,0,0,0],"sum_hessian":[3.5210734E4,2.7443578E4,7.7671577E3,2.3871236E4,3.5723425E3,7.56015E3,1.6311086E4,7.927319E3,8.383767E3,6.5515537E3,1.3757646E3,1.1820764E3,7.2016904E3],"tree_param":{"num_deleted":"0","num_feature":"8","num_nodes":"13","size_leaf_vector":"1"}},{"base_weights":[-5.4894965E-5,-5.645232E-1,1.9929063E-2,-9.475511E-1,1.9926172E-2,-1.8596033E-2,-5.251116E-1,-1.4574705E0,8.833527E-2,-1.6372783E-2,-7.245102E-3,-1.86074E-2,4.358609E-3],"categories":[],"categories_nodes":[],"categories_segments":[],"categories_sizes":[],"default_left":[0,0,0,0,0,0,0,0,0,0,0,0,0],"id":4,"left_children":[1,3,-1,5,-1,-1,7,9,11,-1,-1,-1,-1],"loss_changes":[3.9594473E4,2.6866238E4,0E0,9.190182E3,0E0,0E0,9.325951E3,8.516045E2,6.66293E3,0E0,0E0,0E0,0E0],"parents":[2147483647,0,0,1,1,3,3,6,6,7,7,8,8],"right_children":[2,4,-1,6,-1,-1,8,10,12,-1,-1,-1,-1],"split_conditions":[1.1885052E0,2.0129232E0,1.9929063E-2,1.6110802E-1,1.9926172E-2,-1.8596033E-2,4.4E1,4.7903457E-1,-2.962091E-1,-1.6372783E-2,-7.245102E-3,-1.86074E-2,4.358609E-3],"split_indices":[6,7,0,6,0,0,1,5,7,0,0,0,0],"split_type":[0,0,0,0,0,0,0,0,0,0,0,0,0],"sum_hessian":[3.5194234E4,2.7426824E4,7.7674087E3,2.3854365E4,3.572458E3,7.550132E3,1.6304234E4,6.469724E3,9.83451E3,5.194251E3,1.2754733E3,1.4875162E3,8.346993E3],"tree_param":{"num_deleted":"0","num_feature":"8","num_nodes":"13","size_leaf_vector":"1"}},{"base_weights":[-5.9438004E-5,-5.5928683E-1,1.973312E-2,-9.388362E-1,1.9730281E-2,-1.843763E-2,-5.2011806E-1,-1.4444089E0,8.745822E-2,-1.622864E-2,-7.175519E-3,-1.844858E-2,4.3144845E-3],"categories":[],"categories_nodes":[],"categories_segments":[],"categories_sizes":[],"default_left":[0,0,0,0,0,0,0,0,0,0,0,0,0],"id":5,"left_children":[1,3,-1,5,-1,-1,7,9,11,-1,-1,-1,-1],"loss_changes":[3.881812E4,2.6344879E4,0E0,9.03083E3,0E0,0E0,9.15236E3,8.3728906E2,6.5376865E3,0E0,0E0,0E0,0E0],"parents":[2147483647,0,0,1,1,3,3,6,6,7,7,8,8],"right_children":[2,4,-1,6,-1,-1,8,10,12,-1,-1,-1,-1],"split_conditions":[1.1885052E0,2.0129232E0,1.973312E-2,1.6110802E-1,1.9730281E-2,-1.843763E-2,4.4E1,4.7903457E-1,-2.962091E-1,-1.622864E-2,-7.175519E-3,-1.844858E-2,4.3144845E-3],"split_indices":[6,7,0,6,0,0,1,5,7,0,0,0,0],"split_type":[0,0,0,0,0,0,0,0,0,0,0,0,0],"sum_hessian":[3.5173254E4,2.7407146E4,7.7661064E3,2.3835287E4,3.5718599E3,7.538911E3,1.6296375E4,6.462998E3,9.833377E3,5.1880225E3,1.2749756E3,1.4853381E3,8.348039E3],"tree_param":{"num_deleted":"0","num_feature":"8","num_nodes":"13","size_leaf_vector":"1"}},{"base_weights":[-6.378641E-5,-5.541568E-1,1.9542912E-2,-9.30286E-1,1.9540126E-2,-1.8283457E-2,-5.1520306E-1,-1.2805868E0,2.068773E-1,-1.4680073E-2,-3.896922E-3,-1.8270474E-2,5.393201E-3],"categories":[],"categories_nodes":[],"categories_segments":[],"categories_sizes":[],"default_left":[0,0,0,0,0,0,0,0,0,0,0,0,0],"id":6,"left_children":[1,3,-1,5,-1,-1,7,9,11,-1,-1,-1,-1],"loss_changes":[3.806368E4,2.583732E4,0E0,8.876586E3,0E0,0E0,9.002436E3,1.3197266E3,5.668747E3,0E0,0E0,0E0,0E0],"parents":[2147483647,0,0,1,1,3,3,6,6,7,7,8,8],"right_children":[2,4,-1,6,-1,-1,8,10,12,-1,-1,-1,-1],"split_conditions":[1.1885052E0,2.0129232E0,1.9542912E-2,1.6110802E-1,1.9540126E-2,-1.8283457E-2,5E1,7.818937E-1,-2.962091E-1,-1.4680073E-2,-3.896922E-3,-1.8270474E-2,5.393201E-3],"split_indices":[6,7,0,6,0,0,1,5,7,0,0,0,0],"split_type":[0,0,0,0,0,0,0,0,0,0,0,0,0],"sum_hessian":[3.5147945E4,2.7384646E4,7.7632983E3,2.3814076E4,3.5705688E3,7.5265273E3,1.628755E4,7.906316E3,8.381233E3,6.5315947E3,1.3747214E3,1.176819E3,7.2044146E3],"tree_param":{"num_deleted":"0","num_feature":"8","num_nodes":"13","size_leaf_vector":"1"}},{"base_weights":[-6.761946E-5,-5.4912454E-1,1.9358197E-2,-9.21886E-1,1.9355463E-2,-1.8133353E-2,-5.103568E-1,-1.420192E0,8.6582735E-2,-1.596189E-2,-7.046319E-3,-1.81535E-2,4.240052E-3],"categories":[],"categories_nodes":[],"categories_segments":[],"categories_sizes":[],"default_left":[0,0,0,0,0,0,0,0,0,0,0,0,0],"id":7,"left_children":[1,3,-1,5,-1,-1,7,9,11,-1,-1,-1,-1],"loss_changes":[3.7330188E4,2.5342914E4,0E0,8.727359E3,0E0,0E0,8.841521E3,8.110801E2,6.3096636E3,0E0,0E0,0E0,0E0],"parents":[2147483647,0,0,1,1,3,3,6,6,7,7,8,8],"right_children":[2,4,-1,6,-1,-1,8,10,12,-1,-1,-1,-1],"split_conditions":[1.1885052E0,2.0129232E0,1.9358197E-2,1.6110802E-1,1.9355463E-2,-1.8133353E-2,4.4E1,4.7903457E-1,-2.962091E-1,-1.596189E-2,-7.046319E-3,-1.81535E-2,4.240052E-3],"split_indices":[6,7,0,6,0,0,1,5,7,0,0,0,0],"split_type":[0,0,0,0,0,0,0,0,0,0,0,0,0],"sum_hessian":[3.5118664E4,2.7359633E4,7.759031E3,2.3791025E4,3.5686072E3,7.5130166E3,1.6278009E4,6.448319E3,9.829689E3,5.1744062E3,1.2739125E3,1.480462E3,8.349228E3],"tree_param":{"num_deleted":"0","num_feature":"8","num_nodes":"13","size_leaf_vector":"1"}},{"base_weights":[-7.156159E-5,-5.441945E-1,1.9178756E-2,-9.136455E-1,1.917607E-2,-1.798717E-2,-5.055895E-1,-1.2588617E0,2.0377356E-1,-1.4438664E-2,-3.8119322E-3,-1.797429E-2,5.2958215E-3],"categories":[],"categories_nodes":[],"categories_segments":[],"categories_sizes":[],"default_left":[0,0,0,0,0,0,0,0,0,0,0,0,0],"id":8,"left_children":[1,3,-1,5,-1,-1,7,9,11,-1,-1,-1,-1],"loss_changes":[3.661696E4,2.4861387E4,0E0,8.582695E3,0E0,0E0,8.693188E3,1.2805977E3,5.464313E3,0E0,0E0,0E0,0E0],"parents":[2147483647,0,0,1,1,3,3,6,6,7,7,8,8],"right_children":[2,4,-1,6,-1,-1,8,10,12,-1,-1,-1,-1],"split_conditions":[1.1885052E0,2.0129232E0,1.9178756E-2,1.6110802E-1,1.917607E-2,-1.798717E-2,5E1,7.818937E-1,-2.962091E-1,-1.4438664E-2,-3.8119322E-3,-1.797429E-2,5.2958215E-3],"split_indices":[6,7,0,6,0,0,1,5,7,0,0,0,0],"split_type":[0,0,0,0,0,0,0,0,0,0,0,0,0],"sum_hessian":[3.508519E4,2.7331844E4,7.7533467E3,2.376585E4,3.565994E3,7.498416E3,1.6267435E4,7.8891626E3,8.378271E3,6.5151763E3,1.3739862E3,1.172423E3,7.2058486E3],"tree_param":{"num_deleted":"0","num_feature":"8","num_nodes":"13","size_leaf_vector":"1"}},{"base_weights":[-7.5107084E-5,-5.393555E-1,1.900437E-2,-9.0554506E-1,1.9001724E-2,-1.784476E-2,-5.0088674E-1,-1.3968791E0,8.572129E-2,-1.5706163E-2,-6.920106E-3,-1.7873324E-2,4.167128E-3],"categories":[],"categories_nodes":[],"categories_segments":[],"categories_sizes":[],"default_left":[0,0,0,0,0,0,0,0,0,0,0,0,0],"id":9,"left_children":[1,3,-1,5,-1,-1,7,9,11,-1,-1,-1,-1],"loss_changes":[3.5923066E4,2.4392049E4,0E0,8.442625E3,0E0,0E0,8.544849E3,7.866377E2,6.092395E3,0E0,0E0,0E0,0E0],"parents":[2147483647,0,0,1,1,3,3,6,6,7,7,8,8],"right_children":[2,4,-1,6,-1,-1,8,10,12,-1,-1,-1,-1],"split_conditions":[1.1885052E0,2.0129232E0,1.900437E-2,1.6110802E-1,1.9001724E-2,-1.784476E-2,4.4E1,4.7903457E-1,-2.962091E-1,-1.5706163E-2,-6.920106E-3,-1.7873324E-2,4.167128E-3],"split_indices":[6,7,0,6,0,0,1,5,7,0,0,0,0],"split_type":[0,0,0,0,0,0,0,0,0,0,0,0,0],"sum_hessian":[3.5048008E4,2.7301719E4,7.746291E3,2.3738969E4,3.5627502E3,7.4827603E3,1.6256208E4,6.43141E3,9.824797E3,5.1586655E3,1.2727448E3,1.4747738E3,8.350023E3],"tree_param":{"num_deleted":"0","num_feature":"8","num_nodes":"13","size_leaf_vector":"1"}},{"base_weights":[-7.8614066E-5,-5.346121E-1,1.8834839E-2,-8.975947E-1,1.8832233E-2,-1.7705984E-2,-4.9625918E-1,-1.2858121E0,1.5843526E-1,-1.4615347E-2,-3.9932854E-3,-1.7709477E-2,4.8127985E-3],"categories":[],"categories_nodes":[],"categories_segments":[],"categories_sizes":[],"default_left":[0,0,0,0,0,0,0,0,0,0,0,0,0],"id":10,"left_children":[1,3,-1,5,-1,-1,7,9,11,-1,-1,-1,-1],"loss_changes":[3.524789E4,2.3934691E4,0E0,8.306709E3,0E0,0E0,8.397497E3,1.1465703E3,5.5332656E3,0E0,0E0,0E0,0E0],"parents":[2147483647,0,0,1,1,3,3,6,6,7,7,8,8],"right_children":[2,4,-1,6,-1,-1,8,10,12,-1,-1,-1,-1],"split_conditions":[1.1885052E0,2.0129232E0,1.8834839E-2,1.6110802E-1,1.8832233E-2,-1.7705984E-2,4.8E1,8.075086E-1,-2.962091E-1,-1.4615347E-2,-3.9932854E-3,-1.7709477E-2,4.8127985E-3],"split_indices":[6,7,0,6,0,0,1,5,7,0,0,0,0],"split_type":[0,0,0,0,0,0,0,0,0,0,0,0,0],"sum_hessian":[3.5006875E4,2.726897E4,7.737906E3,2.3710076E4,3.5588953E3,7.4660854E3,1.624399E4,7.3631562E3,8.880834E3,6.1445146E3,1.2186411E3,1.2723763E3,7.6084575E3],"tree_param":{"num_deleted":"0","num_feature":"8","num_nodes":"13","size_leaf_vector":"1"}},{"base_weights":[-8.1977814E-5,-5.2995545E-1,1.8669965E-2,-8.897785E-1,1.8667402E-2,-1.7570714E-2,-4.916953E-1,-1.3740608E0,8.459858E-2,-1.5457426E-2,-6.7924564E-3,-1.7603252E-2,4.091483E-3],"categories":[],"categories_nodes":[],"categories_segments":[],"categories_sizes":[],"default_left":[0,0,0,0,0,0,0,0,0,0,0,0,0],"id":11,"left_children":[1,3,-1,5,-1,-1,7,9,11,-1,-1,-1,-1],"loss_changes":[3.4590613E4,2.3488723E4,0E0,8.1749434E3,0E0,0E0,8.254165E3,7.639512E2,5.8806274E3,0E0,0E0,0E0,0E0],"parents":[2147483647,0,0,1,1,3,3,6,6,7,7,8,8],"right_children":[2,4,-1,6,-1,-1,8,10,12,-1,-1,-1,-1],"split_conditions":[1.1885052E0,2.0129232E0,1.8669965E-2,1.6110802E-1,1.8667402E-2,-1.7570714E-2,4.4E1,4.7903457E-1,-2.962091E-1,-1.5457426E-2,-6.7924564E-3,-1.7603252E-2,4.091483E-3],"split_indices":[6,7,0,6,0,0,1,5,7,0,0,0,0],"split_type":[0,0,0,0,0,0,0,0,0,0,0,0,0],"sum_hessian":[3.4962195E4,2.7233963E4,7.728233E3,2.3679516E4,3.5544478E3,7.448425E3,1.6231091E4,6.412108E3,9.818983E3,5.140674E3,1.2714342E3,1.4682422E3,8.350741E3],"tree_param":{"num_deleted":"0","num_feature":"8","num_nodes":"13","size_leaf_vector":"1"}},{"base_weights":[-8.543919E-5,-5.2538747E-1,1.8509569E-2,-8.821015E-1,1.8507043E-2,-1.7438823E-2,-4.8720127E-1,-1.2179635E0,1.9810015E-1,-1.3986827E-2,-3.6478399E-3,-1.7425833E-2,5.110863E-3],"categories":[],"categories_nodes":[],"categories_segments":[],"categories_sizes":[],"default_left":[0,0,0,0,0,0,0,0,0,0,0,0,0],"id":12,"left_children":[1,3,-1,5,-1,-1,7,9,11,-1,-1,-1,-1],"loss_changes":[3.395065E4,2.305387E4,0E0,8.0470137E3,0E0,0E0,8.122243E3,1.2096904E3,5.0850977E3,0E0,0E0,0E0,0E0],"parents":[2147483647,0,0,1,1,3,3,6,6,7,7,8,8],"right_children":[2,4,-1,6,-1,-1,8,10,12,-1,-1,-1,-1],"split_conditions":[1.1885052E0,2.0129232E0,1.8509569E-2,1.6110802E-1,1.8507043E-2,-1.7438823E-2,5E1,7.818937E-1,-2.962091E-1,-1.3986827E-2,-3.6478399E-3,-1.7425833E-2,5.110863E-3],"split_indices":[6,7,0,6,0,0,1,5,7,0,0,0,0],"split_type":[0,0,0,0,0,0,0,0,0,0,0,0,0],"sum_hessian":[3.491385E4,2.7196541E4,7.7173125E3,2.3647113E4,3.5494268E3,7.42981E3,1.6217304E4,7.847959E3,8.369345E3,6.475655E3,1.3723042E3,1.1616875E3,7.207657E3],"tree_param":{"num_deleted":"0","num_feature":"8","num_nodes":"13","size_leaf_vector":"1"}},{"base_weights":[-8.816206E-5,-5.20897E-1,1.8353483E-2,-8.745441E-1,1.835099E-2,-1.7310193E-2,-4.827622E-1,-1.3523961E0,8.376489E-2,-1.5221705E-2,-6.6719237E-3,-1.7349951E-2,4.021469E-3],"categories":[],"categories_nodes":[],"categories_segments":[],"categories_sizes":[],"default_left":[0,0,0,0,0,0,0,0,0,0,0,0,0],"id":13,"left_children":[1,3,-1,5,-1,-1,7,9,11,-1,-1,-1,-1],"loss_changes":[3.3327234E4,2.2629545E4,0E0,7.9229824E3,0E0,0E0,7.983375E3,7.425791E2,5.6829717E3,0E0,0E0,0E0,0E0],"parents":[2147483647,0,0,1,1,3,3,6,6,7,7,8,8],"right_children":[2,4,-1,6,-1,-1,8,10,12,-1,-1,-1,-1],"split_conditions":[1.1885052E0,2.0129232E0,1.8353483E-2,1.6110802E-1,1.835099E-2,-1.7310193E-2,4.4E1,4.7903457E-1,-2.962091E-1,-1.5221705E-2,-6.6719237E-3,-1.7349951E-2,4.021469E-3],"split_indices":[6,7,0,6,0,0,1,5,7,0,0,0,0],"split_type":[0,0,0,0,0,0,0,0,0,0,0,0,0],"sum_hessian":[3.4862344E4,2.715716E4,7.705183E3,2.361331E4,3.54385E3,7.410275E3,1.6203036E4,6.3911167E3,9.811919E3,5.121043E3,1.2700736E3,1.4610739E3,8.350846E3],"tree_param":{"num_deleted":"0","num_feature":"8","num_nodes":"13","size_leaf_vector":"1"}},{"base_weights":[-9.1383794E-5,-5.1649266E-1,1.8201541E-2,-8.671228E-1,1.8199079E-2,-1.7184712E-2,-4.78394E-1,-1.1983311E0,1.9518508E-1,-1.3770914E-2,-3.5682162E-3,-1.7171659E-2,5.0192378E-3],"categories":[],"categories_nodes":[],"categories_segments":[],"categories_sizes":[],"default_left":[0,0,0,0,0,0,0,0,0,0,0,0,0],"id":14,"left_children":[1,3,-1,5,-1,-1,7,9,11,-1,-1,-1,-1],"loss_changes":[3.2719916E4,2.2215666E4,0E0,7.802385E3,0E0,0E0,7.8507437E3,1.1766533E3,4.907434E3,0E0,0E0,0E0,0E0],"parents":[2147483647,0,0,1,1,3,3,6,6,7,7,8,8],"right_children":[2,4,-1,6,-1,-1,8,10,12,-1,-1,-1,-1],"split_conditions":[1.1885052E0,2.0129232E0,1.8201541E-2,1.6110802E-1,1.8199079E-2,-1.7184712E-2,5E1,7.818937E-1,-2.962091E-1,-1.3770914E-2,-3.5682162E-3,-1.7171659E-2,5.0192378E-3],"split_indices":[6,7,0,6,0,0,1,5,7,0,0,0,0],"split_type":[0,0,0,0,0,0,0,0,0,0,0,0,0],"sum_hessian":[3.4807273E4,2.7115389E4,7.6918843E3,2.3577652E4,3.5377356E3,7.389849E3,1.6187804E4,7.824266E3,8.363537E3,6.45286E3,1.3714061E3,1.1554335E3,7.208104E3],"tree_param":{"num_deleted":"0","num_feature":"8","num_nodes":"13","size_leaf_vector":"1"}},{"base_weights":[-9.3965755E-5,-5.121605E-1,1.8053578E-2,-8.598132E-1,1.8051155E-2,-1.7062271E-2,-4.7407737E-1,-1.3563956E0,6.7618825E-2,-1.5111055E-2,-6.834078E-3,-1.71273E-2,3.818244E-3],"categories":[],"categories_nodes":[],"categories_segments":[],"categories_sizes":[],"default_left":[0,0,0,0,0,0,0,0,0,0,0,0,0],"id":15,"left_children":[1,3,-1,5,-1,-1,7,9,11,-1,-1,-1,-1],"loss_changes":[3.2127943E4,2.1811607E4,0E0,7.685375E3,0E0,0E0,7.7300215E3,6.395332E2,5.606816E3,0E0,0E0,0E0,0E0],"parents":[2147483647,0,0,1,1,3,3,6,6,7,7,8,8],"right_children":[2,4,-1,6,-1,-1,8,10,12,-1,-1,-1,-1],"split_conditions":[1.1885052E0,2.0129232E0,1.8053578E-2,1.6110802E-1,1.8051155E-2,-1.7062271E-2,4.3E1,5.136901E-1,-2.962091E-1,-1.5111055E-2,-6.834078E-3,-1.71273E-2,3.818244E-3],"split_indices":[6,7,0,6,0,0,1,5,7,0,0,0,0],"split_type":[0,0,0,0,0,0,0,0,0,0,0,0,0],"sum_hessian":[3.4749266E4,2.707181E4,7.677454E3,2.3540709E4,3.5311008E3,7.3685645E3,1.61721455E4,6.1513247E3,1.002082E4,5.0005317E3,1.1507931E3,1.5025626E3,8.518258E3],"tree_param":{"num_deleted":"0","num_feature":"8","num_nodes":"13","size_leaf_vector":"1"}},{"base_weights":[-9.681555E-5,-5.0790644E-1,1.7909462E-2,-8.526266E-1,1.790706E-2,-1.6942764E-2,-4.6982393E-1,-1.345559E0,6.69647E-2,-1.4995188E-2,-6.769933E-3,-1.7006163E-2,3.7799096E-3],"categories":[],"categories_nodes":[],"categories_segments":[],"categories_sizes":[],"default_left":[0,0,0,0,0,0,0,0,0,0,0,0,0],"id":16,"left_children":[1,3,-1,5,-1,-1,7,9,11,-1,-1,-1,-1],"loss_changes":[3.1550914E4,2.1417234E4,0E0,7.571588E3,0E0,0E0,7.595113E3,6.309824E2,5.508056E3,0E0,0E0,0E0,0E0],"parents":[2147483647,0,0,1,1,3,3,6,6,7,7,8,8],"right_children":[2,4,-1,6,-1,-1,8,10,12,-1,-1,-1,-1],"split_conditions":[1.1885052E0,2.0129232E0,1.7909462E-2,1.6110802E-1,1.790706E-2,-1.6942764E-2,4.3E1,5.136901E-1,-2.962091E-1,-1.4995188E-2,-6.769933E-3,-1.7006163E-2,3.7799096E-3],"split_indices":[6,7,0,6,0,0,1,5,7,0,0,0,0],"split_type":[0,0,0,0,0,0,0,0,0,0,0,0,0],"sum_hessian":[3.4688055E4,2.7026125E4,7.661928E3,2.3502162E4,3.5239624E3,7.346451E3,1.6155712E4,6.1389365E3,1.0016775E4,4.9888438E3,1.1500928E3,1.498162E3,8.518613E3],"tree_param":{"num_deleted":"0","num_feature":"8","num_nodes":"13","size_leaf_vector":"1"}},{"base_weights":[-9.975274E-5,-5.0372636E-1,1.7769039E-2,-8.4555656E-1,1.776667E-2,-1.6826097E-2,-4.656293E-1,-1.1707405E0,1.916033E-1,-1.3469778E-2,-3.449822E-3,-1.681243E-2,4.892999E-3],"categories":[],"categories_nodes":[],"categories_segments":[],"categories_sizes":[],"default_left":[0,0,0,0,0,0,0,0,0,0,0,0,0],"id":17,"left_children":[1,3,-1,5,-1,-1,7,9,11,-1,-1,-1,-1],"loss_changes":[3.0988244E4,2.1032197E4,0E0,7.4609473E3,0E0,0E0,7.47967E3,1.1326768E3,4.6586597E3,0E0,0E0,0E0,0E0],"parents":[2147483647,0,0,1,1,3,3,6,6,7,7,8,8],"right_children":[2,4,-1,6,-1,-1,8,10,12,-1,-1,-1,-1],"split_conditions":[1.1885052E0,2.0129232E0,1.7769039E-2,1.6110802E-1,1.776667E-2,-1.6826097E-2,5E1,7.818937E-1,-2.962091E-1,-1.3469778E-2,-3.449822E-3,-1.681243E-2,4.892999E-3],"split_indices":[6,7,0,6,0,0,1,5,7,0,0,0,0],"split_type":[0,0,0,0,0,0,0,0,0,0,0,0,0],"sum_hessian":[3.4623816E4,2.697847E4,7.6453433E3,2.3462135E4,3.516337E3,7.323537E3,1.6138598E4,7.7853325E3,8.353265E3,6.415478E3,1.3698546E3,1.1450383E3,7.2082266E3],"tree_param":{"num_deleted":"0","num_feature":"8","num_nodes":"13","size_leaf_vector":"1"}},{"base_weights":[-1.0192875E-4,-4.9961245E-1,1.763218E-2,-8.385895E-1,1.7629838E-2,-1.671217E-2,-4.6148348E-1,-1.3255502E0,6.6525586E-2,-1.4780694E-2,-6.655459E-3,-1.6782098E-2,3.7172404E-3],"categories":[],"categories_nodes":[],"categories_segments":[],"categories_sizes":[],"default_left":[0,0,0,0,0,0,0,0,0,0,0,0,0],"id":18,"left_children":[1,3,-1,5,-1,-1,7,9,11,-1,-1,-1,-1],"loss_changes":[3.043937E4,2.0656057E4,0E0,7.353451E3,0E0,0E0,7.355541E3,6.14583E2,5.3297793E3,0E0,0E0,0E0,0E0],"parents":[2147483647,0,0,1,1,3,3,6,6,7,7,8,8],"right_children":[2,4,-1,6,-1,-1,8,10,12,-1,-1,-1,-1],"split_conditions":[1.1885052E0,2.0129232E0,1.763218E-2,1.6110802E-1,1.7629838E-2,-1.671217E-2,4.3E1,5.136901E-1,-2.962091E-1,-1.4780694E-2,-6.655459E-3,-1.6782098E-2,3.7172404E-3],"split_indices":[6,7,0,6,0,0,1,5,7,0,0,0,0],"split_type":[0,0,0,0,0,0,0,0,0,0,0,0,0],"sum_hessian":[3.4556895E4,2.6929162E4,7.627734E3,2.3420922E4,3.5082402E3,7.2998525E3,1.6121069E4,6.114088E3,1.0006981E4,4.9654023E3,1.1486853E3,1.4891907E3,8.517791E3],"tree_param":{"num_deleted":"0","num_feature":"8","num_nodes":"13","size_leaf_vector":"1"}},{"base_weights":[-1.04545004E-4,-4.9557173E-1,1.7498761E-2,-8.317389E-1,1.7496442E-2,-1.6600896E-2,-4.5739952E-1,-1.1526848E0,1.8893978E-1,-1.3272654E-2,-3.3754376E-3,-1.658699E-2,4.807072E-3],"categories":[],"categories_nodes":[],"categories_segments":[],"categories_sizes":[],"default_left":[0,0,0,0,0,0,0,0,0,0,0,0,0],"id":19,"left_children":[1,3,-1,5,-1,-1,7,9,11,-1,-1,-1,-1],"loss_changes":[2.990395E4,2.0288746E4,0E0,7.248753E3,0E0,0E0,7.237079E3,1.1036123E3,4.500225E3,0E0,0E0,0E0,0E0],"parents":[2147483647,0,0,1,1,3,3,6,6,7,7,8,8],"right_children":[2,4,-1,6,-1,-1,8,10,12,-1,-1,-1,-1],"split_conditions":[1.1885052E0,2.0129232E0,1.7498761E-2,1.6110802E-1,1.7496442E-2,-1.6600896E-2,5E1,7.818937E-1,-2.962091E-1,-1.3272654E-2,-3.3754376E-3,-1.658699E-2,4.807072E-3],"split_indices":[6,7,0,6,0,0,1,5,7,0,0,0,0],"split_type":[0,0,0,0,0,0,0,0,0,0,0,0,0],"sum_hessian":[3.448698E4,2.6877846E4,7.609133E3,2.3378158E4,3.499688E3,7.275423E3,1.6102735E4,7.757255E3,8.34548E3,6.388407E3,1.368848E3,1.137499E3,7.207981E3],"tree_param":{"num_deleted":"0","num_feature":"8","num_nodes":"13","size_leaf_vector":"1"}},{"base_weights":[-1.0656536E-4,-4.9159285E-1,1.7368654E-2,-8.249847E-1,1.736636E-2,-1.649219E-2,-4.5336142E-1,-1.3061956E0,6.6089824E-2,-1.462404E-2,-6.750663E-3,-1.6568165E-2,3.6557883E-3],"categories":[],"categories_nodes":[],"categories_segments":[],"categories_sizes":[],"default_left":[0,0,0,0,0,0,0,0,0,0,0,0,0],"id":20,"left_children":[1,3,-1,5,-1,-1,7,9,11,-1,-1,-1,-1],"loss_changes":[2.9381367E4,1.9929766E4,0E0,7.1469688E3,0E0,0E0,7.1258525E3,5.992842E2,5.1591387E3,0E0,0E0,0E0,0E0],"parents":[2147483647,0,0,1,1,3,3,6,6,7,7,8,8],"right_children":[2,4,-1,6,-1,-1,8,10,12,-1,-1,-1,-1],"split_conditions":[1.1885052E0,2.0129232E0,1.7368654E-2,1.6110802E-1,1.736636E-2,-1.649219E-2,4.3E1,4.4287232E-1,-2.962091E-1,-1.462404E-2,-6.750663E-3,-1.6568165E-2,3.6557883E-3],"split_indices":[6,7,0,6,0,0,1,5,7,0,0,0,0],"split_type":[0,0,0,0,0,0,0,0,0,0,0,0,0],"sum_hessian":[3.441459E4,2.6825014E4,7.589576E3,2.3334316E4,3.4906956E3,7.250277E3,1.608404E4,6.0877188E3,9.996321E3,4.8788555E3,1.2088636E3,1.4796469E3,8.516675E3],"tree_param":{"num_deleted":"0","num_feature":"8","num_nodes":"13","size_leaf_vector":"1"}},{"base_weights":[-1.0902526E-4,-4.87683E-1,1.7241746E-2,-8.183407E-1,1.7239476E-2,-1.6385967E-2,-4.493825E-1,-1.2962183E0,6.545656E-2,-1.4468718E-2,-6.4805434E-3,-1.6460145E-2,3.6191978E-3],"categories":[],"categories_nodes":[],"categories_segments":[],"categories_sizes":[],"default_left":[0,0,0,0,0,0,0,0,0,0,0,0,0],"id":21,"left_children":[1,3,-1,5,-1,-1,7,9,11,-1,-1,-1,-1],"loss_changes":[2.8871354E4,1.957907E4,0E0,7.04776E3,0E0,0E0,7.0044233E3,5.92209E2,5.0705493E3,0E0,0E0,0E0,0E0],"parents":[2147483647,0,0,1,1,3,3,6,6,7,7,8,8],"right_children":[2,4,-1,6,-1,-1,8,10,12,-1,-1,-1,-1],"split_conditions":[1.1885052E0,2.0129232E0,1.7241746E-2,1.6110802E-1,1.7239476E-2,-1.6385967E-2,4.3E1,5.136901E-1,-2.962091E-1,-1.4468718E-2,-6.4805434E-3,-1.6460145E-2,3.6191978E-3],"split_indices":[6,7,0,6,0,0,1,5,7,0,0,0,0],"split_type":[0,0,0,0,0,0,0,0,0,0,0,0,0],"sum_hessian":[3.4339395E4,2.6770299E4,7.5690938E3,2.3289021E4,3.4812783E3,7.22444E3,1.6064581E4,6.073324E3,9.991257E3,4.926921E3,1.1464036E3,1.474496E3,8.516761E3],"tree_param":{"num_deleted":"0","num_feature":"8","num_nodes":"13","size_leaf_vector":"1"}},{"base_weights":[-1.1146933E-4,-4.838367E-1,1.7117929E-2,-8.117975E-1,1.7115677E-2,-1.6282149E-2,-4.454557E-1,-1.1271367E0,1.8552032E-1,-1.2996359E-2,-3.2616174E-3,-1.6267568E-2,4.68679E-3],"categories":[],"categories_nodes":[],"categories_segments":[],"categories_sizes":[],"default_left":[0,0,0,0,0,0,0,0,0,0,0,0,0],"id":22,"left_children":[1,3,-1,5,-1,-1,7,9,11,-1,-1,-1,-1],"loss_changes":[2.837343E4,1.923631E4,0E0,6.9511133E3,0E0,0E0,6.901786E3,1.0652627E3,4.277213E3,0E0,0E0,0E0,0E0],"parents":[2147483647,0,0,1,1,3,3,6,6,7,7,8,8],"right_children":[2,4,-1,6,-1,-1,8,10,12,-1,-1,-1,-1],"split_conditions":[1.1885052E0,2.0129232E0,1.7117929E-2,1.6110802E-1,1.7115677E-2,-1.6282149E-2,5E1,7.818937E-1,-2.962091E-1,-1.2996359E-2,-3.2616174E-3,-1.6267568E-2,4.68679E-3],"split_indices":[6,7,0,6,0,0,1,5,7,0,0,0,0],"split_type":[0,0,0,0,0,0,0,0,0,0,0,0,0],"sum_hessian":[3.426165E4,2.6713928E4,7.547719E3,2.3242477E4,3.4714504E3,7.1979395E3,1.6044538E4,7.712009E3,8.332529E3,6.344932E3,1.3670767E3,1.1253431E3,7.207186E3],"tree_param":{"num_deleted":"0","num_feature":"8","num_nodes":"13","size_leaf_vector":"1"}},{"base_weights":[-1.13105154E-4,-4.800448E-1,1.699709E-2,-8.0533904E-1,1.699486E-2,-1.6180659E-2,-4.4156882E-1,-1.2777817E0,6.502631E-2,-1.4322755E-2,-6.57308E-3,-1.6260363E-2,3.5595258E-3],"categories":[],"categories_nodes":[],"categories_segments":[],"categories_sizes":[],"default_left":[0,0,0,0,0,0,0,0,0,0,0,0,0],"id":23,"left_children":[1,3,-1,5,-1,-1,7,9,11,-1,-1,-1,-1],"loss_changes":[2.7887074E4,1.8901094E4,0E0,6.8571074E3,0E0,0E0,6.7887305E3,5.786084E2,4.910702E3,0E0,0E0,0E0,0E0],"parents":[2147483647,0,0,1,1,3,3,6,6,7,7,8,8],"right_children":[2,4,-1,6,-1,-1,8,10,12,-1,-1,-1,-1],"split_conditions":[1.1885052E0,2.0129232E0,1.699709E-2,1.6110802E-1,1.699486E-2,-1.6180659E-2,4.3E1,4.4287232E-1,-2.962091E-1,-1.4322755E-2,-6.57308E-3,-1.6260363E-2,3.5595258E-3],"split_indices":[6,7,0,6,0,0,1,5,7,0,0,0,0],"split_type":[0,0,0,0,0,0,0,0,0,0,0,0,0],"sum_hessian":[3.4181777E4,2.6656297E4,7.525483E3,2.319507E4,3.461226E3,7.1707974E3,1.6024273E4,6.0448315E3,9.979441E3,4.8387144E3,1.2061168E3,1.4641588E3,8.515283E3],"tree_param":{"num_deleted":"0","num_feature":"8","num_nodes":"13","size_leaf_vector":"1"}},{"base_weights":[-1.1535815E-4,-4.76318E-1,1.6879136E-2,-7.9898524E-1,1.6876925E-2,-1.6081426E-2,-4.3773976E-1,-1.1103504E0,1.8297237E-1,-1.2814709E-2,-3.1897384E-3,-1.6066585E-2,4.6048826E-3],"categories":[],"categories_nodes":[],"categories_segments":[],"categories_sizes":[],"default_left":[0,0,0,0,0,0,0,0,0,0,0,0,0],"id":24,"left_children":[1,3,-1,5,-1,-1,7,9,11,-1,-1,-1,-1],"loss_changes":[2.7412117E4,1.8573457E4,0E0,6.765341E3,0E0,0E0,6.681926E3,1.0397764E3,4.1349014E3,0E0,0E0,0E0,0E0],"parents":[2147483647,0,0,1,1,3,3,6,6,7,7,8,8],"right_children":[2,4,-1,6,-1,-1,8,10,12,-1,-1,-1,-1],"split_conditions":[1.1885052E0,2.0129232E0,1.6879136E-2,1.6110802E-1,1.6876925E-2,-1.6081426E-2,5E1,7.818937E-1,-2.962091E-1,-1.2814709E-2,-3.1897384E-3,-1.6066585E-2,4.6048826E-3],"split_indices":[6,7,0,6,0,0,1,5,7,0,0,0,0],"split_type":[0,0,0,0,0,0,0,0,0,0,0,0,0],"sum_hessian":[3.4099293E4,2.6596879E4,7.5024136E3,2.314626E4,3.4506187E3,7.143041E3,1.600322E4,7.6801426E3,8.323077E3,6.3141953E3,1.3659475E3,1.1167361E3,7.206341E3],"tree_param":{"num_deleted":"0","num_feature":"8","num_nodes":"13","size_leaf_vector":"1"}},{"base_weights":[-1.169434E-4,-4.7264227E-1,1.6763968E-2,-7.927112E-1,1.6761772E-2,-1.598438E-2,-4.3394852E-1,-1.2599068E0,6.45993E-2,-1.4133607E-2,-6.4620934E-3,-1.6069228E-2,3.5010003E-3],"categories":[],"categories_nodes":[],"categories_segments":[],"categories_sizes":[],"default_left":[0,0,0,0,0,0,0,0,0,0,0,0,0],"id":25,"left_children":[1,3,-1,5,-1,-1,7,9,11,-1,-1,-1,-1],"loss_changes":[2.6947992E4,1.8252908E4,0E0,6.6760283E3,0E0,0E0,6.581548E3,5.6564746E2,4.757448E3,0E0,0E0,0E0,0E0],"parents":[2147483647,0,0,1,1,3,3,6,6,7,7,8,8],"right_children":[2,4,-1,6,-1,-1,8,10,12,-1,-1,-1,-1],"split_conditions":[1.1885052E0,2.0129232E0,1.6763968E-2,1.6110802E-1,1.6761772E-2,-1.598438E-2,4.3E1,4.4287232E-1,-2.962091E-1,-1.4133607E-2,-6.4620934E-3,-1.6069228E-2,3.5010003E-3],"split_indices":[6,7,0,6,0,0,1,5,7,0,0,0,0],"split_type":[0,0,0,0,0,0,0,0,0,0,0,0,0],"sum_hessian":[3.4014855E4,2.6536316E4,7.478541E3,2.3096674E4,3.4396426E3,7.114693E3,1.598198E4,6.0150874E3,9.966893E3,4.8108423E3,1.2042451E3,1.4533473E3,8.513546E3],"tree_param":{"num_deleted":"0","num_feature":"8","num_nodes":"13","size_leaf_vector":"1"}},{"base_weights":[-1.190015E-4,-4.690282E-1,1.6651493E-2,-7.865367E-1,1.6649313E-2,-1.5889449E-2,-4.3021294E-1,-1.2506715E0,6.398563E-2,-1.4036623E-2,-6.402642E-3,-1.5972394E-2,3.4660574E-3],"categories":[],"categories_nodes":[],"categories_segments":[],"categories_sizes":[],"default_left":[0,0,0,0,0,0,0,0,0,0,0,0,0],"id":26,"left_children":[1,3,-1,5,-1,-1,7,9,11,-1,-1,-1,-1],"loss_changes":[2.649454E4,1.7939496E4,0E0,6.5887773E3,0E0,0E0,6.4717686E3,5.594238E2,4.6776533E3,0E0,0E0,0E0,0E0],"parents":[2147483647,0,0,1,1,3,3,6,6,7,7,8,8],"right_children":[2,4,-1,6,-1,-1,8,10,12,-1,-1,-1,-1],"split_conditions":[1.1885052E0,2.0129232E0,1.6651493E-2,1.6110802E-1,1.6649313E-2,-1.5889449E-2,4.3E1,4.4287232E-1,-2.962091E-1,-1.4036623E-2,-6.402642E-3,-1.5972394E-2,3.4660574E-3],"split_indices":[6,7,0,6,0,0,1,5,7,0,0,0,0],"split_type":[0,0,0,0,0,0,0,0,0,0,0,0,0],"sum_hessian":[3.392796E4,2.6474066E4,7.4538965E3,2.3045756E4,3.4283103E3,7.0857773E3,1.5959979E4,5.9990107E3,9.960968E3,4.7957236E3,1.2032869E3,1.4475717E3,8.513396E3],"tree_param":{"num_deleted":"0","num_feature":"8","num_nodes":"13","size_leaf_vector":"1"}},{"base_weights":[-1.2100521E-4,-4.6546865E-1,1.6541624E-2,-7.804493E-1,1.6539458E-2,-1.579658E-2,-4.2652345E-1,-1.0865726E0,1.7969908E-1,-1.2559801E-2,-3.080258E-3,-1.5781045E-2,4.4901883E-3],"categories":[],"categories_nodes":[],"categories_segments":[],"categories_sizes":[],"default_left":[0,0,0,0,0,0,0,0,0,0,0,0,0],"id":27,"left_children":[1,3,-1,5,-1,-1,7,9,11,-1,-1,-1,-1],"loss_changes":[2.605134E4,1.7632902E4,0E0,6.5036543E3,0E0,0E0,6.3777734E3,1.0060303E3,3.934219E3,0E0,0E0,0E0,0E0],"parents":[2147483647,0,0,1,1,3,3,6,6,7,7,8,8],"right_children":[2,4,-1,6,-1,-1,8,10,12,-1,-1,-1,-1],"split_conditions":[1.1885052E0,2.0129232E0,1.6541624E-2,1.6110802E-1,1.6539458E-2,-1.579658E-2,5E1,7.818937E-1,-2.962091E-1,-1.2559801E-2,-3.080258E-3,-1.5781045E-2,4.4901883E-3],"split_indices":[6,7,0,6,0,0,1,5,7,0,0,0,0],"split_type":[0,0,0,0,0,0,0,0,0,0,0,0,0],"sum_hessian":[3.3838953E4,2.641045E4,7.4285044E3,2.2993814E4,3.4166355E3,7.0563145E3,1.59375E4,7.629635E3,8.307865E3,6.2656504E3,1.3639844E3,1.1031215E3,7.204743E3],"tree_param":{"num_deleted":"0","num_feature":"8","num_nodes":"13","size_leaf_vector":"1"}},{"base_weights":[-1.2228181E-4,-4.6195418E-1,1.6434275E-2,-7.7443206E-1,1.6432125E-2,-1.5705701E-2,-4.2286673E-1,-1.2335906E0,6.356434E-2,-1.3856879E-2,-6.2950645E-3,-1.5793381E-2,3.409217E-3],"categories":[],"categories_nodes":[],"categories_segments":[],"categories_sizes":[],"default_left":[0,0,0,0,0,0,0,0,0,0,0,0,0],"id":28,"left_children":[1,3,-1,5,-1,-1,7,9,11,-1,-1,-1,-1],"loss_changes":[2.5617963E4,1.733275E4,0E0,6.420757E3,0E0,0E0,6.2767163E3,5.475127E2,4.5337603E3,0E0,0E0,0E0,0E0],"parents":[2147483647,0,0,1,1,3,3,6,6,7,7,8,8],"right_children":[2,4,-1,6,-1,-1,8,10,12,-1,-1,-1,-1],"split_conditions":[1.1885052E0,2.0129232E0,1.6434275E-2,1.6110802E-1,1.6432125E-2,-1.5705701E-2,4.3E1,4.4287232E-1,-2.962091E-1,-1.3856879E-2,-6.2950645E-3,-1.5793381E-2,3.409217E-3],"split_indices":[6,7,0,6,0,0,1,5,7,0,0,0,0],"split_type":[0,0,0,0,0,0,0,0,0,0,0,0,0],"sum_hessian":[3.3748312E4,2.6345918E4,7.4023945E3,2.2941287E4,3.40463E3,7.026329E3,1.5914958E4,5.967509E3,9.94745E3,4.766178E3,1.2013304E3,1.4361061E3,8.511344E3],"tree_param":{"num_deleted":"0","num_feature":"8","num_nodes":"13","size_leaf_vector":"1"}},{"base_weights":[-1.2419518E-4,-4.584981E-1,1.6329365E-2,-7.6850975E-1,1.6327228E-2,-1.5616755E-2,-4.1926464E-1,-1.0708919E0,1.7725572E-1,-1.2391307E-2,-3.0120101E-3,-1.5600959E-2,4.412051E-3],"categories":[],"categories_nodes":[],"categories_segments":[],"categories_sizes":[],"default_left":[0,0,0,0,0,0,0,0,0,0,0,0,0],"id":29,"left_children":[1,3,-1,5,-1,-1,7,9,11,-1,-1,-1,-1],"loss_changes":[2.5194309E4,1.7039164E4,0E0,6.339665E3,0E0,0E0,6.1777974E3,9.8319824E2,3.8059316E3,0E0,0E0,0E0,0E0],"parents":[2147483647,0,0,1,1,3,3,6,6,7,7,8,8],"right_children":[2,4,-1,6,-1,-1,8,10,12,-1,-1,-1,-1],"split_conditions":[1.1885052E0,2.0129232E0,1.6329365E-2,1.6110802E-1,1.6327228E-2,-1.5616755E-2,5E1,7.818937E-1,-2.962091E-1,-1.2391307E-2,-3.0120101E-3,-1.5600959E-2,4.412051E-3],"split_indices":[6,7,0,6,0,0,1,5,7,0,0,0,0],"split_type":[0,0,0,0,0,0,0,0,0,0,0,0,0],"sum_hessian":[3.3655375E4,2.6279781E4,7.3755933E3,2.2887475E4,3.3923064E3,6.995843E3,1.5891633E4,7.594621E3,8.297012E3,6.2318535E3,1.3627677E3,1.0936361E3,7.2033755E3],"tree_param":{"num_deleted":"0","num_feature":"8","num_nodes":"13","size_leaf_vector":"1"}},{"base_weights":[-1.2532163E-4,-4.5508403E-1,1.622682E-2,-7.6265305E-1,1.6224695E-2,-1.5529689E-2,-4.1569328E-1,-1.2169993E0,6.3146405E-2,-1.3682912E-2,-6.1896476E-3,-1.56218E-2,3.353461E-3],"categories":[],"categories_nodes":[],"categories_segments":[],"categories_sizes":[],"default_left":[0,0,0,0,0,0,0,0,0,0,0,0,0],"id":30,"left_children":[1,3,-1,5,-1,-1,7,9,11,-1,-1,-1,-1],"loss_changes":[2.4779883E4,1.675165E4,0E0,6.260659E3,0E0,0E0,6.089076E3,5.3622754E2,4.395598E3,0E0,0E0,0E0,0E0],"parents":[2147483647,0,0,1,1,3,3,6,6,7,7,8,8],"right_children":[2,4,-1,6,-1,-1,8,10,12,-1,-1,-1,-1],"split_conditions":[1.1885052E0,2.0129232E0,1.622682E-2,1.6110802E-1,1.6224695E-2,-1.5529689E-2,4.3E1,4.4287232E-1,-2.962091E-1,-1.3682912E-2,-6.1896476E-3,-1.56218E-2,3.353461E-3],"split_indices":[6,7,0,6,0,0,1,5,7,0,0,0,0],"split_type":[0,0,0,0,0,0,0,0,0,0,0,0,0],"sum_hessian":[3.3560965E4,2.6212838E4,7.3481245E3,2.2833162E4,3.3796763E3,6.964875E3,1.5868287E4,5.9349707E3,9.933316E3,4.735649E3,1.1993218E3,1.4242522E3,8.509064E3],"tree_param":{"num_deleted":"0","num_feature":"8","num_nodes":"13","size_leaf_vector":"1"}},{"base_weights":[-1.2713429E-4,-4.5172566E-1,1.6126564E-2,-7.568873E-1,1.6124452E-2,-1.5444445E-2,-4.1217488E-1,-1.1859101E0,7.6375246E-2,-1.3470952E-2,-5.7685873E-3,-1.5514061E-2,3.4401151E-3],"categories":[],"categories_nodes":[],"categories_segments":[],"categories_sizes":[],"default_left":[0,0,0,0,0,0,0,0,0,0,0,0,0],"id":31,"left_children":[1,3,-1,5,-1,-1,7,9,11,-1,-1,-1,-1],"loss_changes":[2.4374602E4,1.6470346E4,0E0,6.1833223E3,0E0,0E0,5.989702E3,6.0127344E2,4.232236E3,0E0,0E0,0E0,0E0],"parents":[2147483647,0,0,1,1,3,3,6,6,7,7,8,8],"right_children":[2,4,-1,6,-1,-1,8,10,12,-1,-1,-1,-1],"split_conditions":[1.1885052E0,2.0129232E0,1.6126564E-2,1.6110802E-1,1.6124452E-2,-1.5444445E-2,4.4E1,4.4287232E-1,-2.962091E-1,-1.3470952E-2,-5.7685873E-3,-1.5514061E-2,3.4401151E-3],"split_indices":[6,7,0,6,0,0,1,5,7,0,0,0,0],"split_type":[0,0,0,0,0,0,0,0,0,0,0,0,0],"sum_hessian":[3.3464395E4,2.6144377E4,7.320016E3,2.2777625E4,3.3667515E3,6.933446E3,1.584418E4,6.1317188E3,9.712461E3,4.8475933E3,1.2841255E3,1.3707391E3,8.341722E3],"tree_param":{"num_deleted":"0","num_feature":"8","num_nodes":"13","size_leaf_vector":"1"}},{"base_weights":[-1.2877786E-4,-4.4841588E-1,1.6028523E-2,-7.512002E-1,1.6026424E-2,-1.5360973E-2,-4.086995E-1,-1.0485494E0,1.7400715E-1,-1.21535E-2,-2.9075318E-3,-1.5344601E-2,4.301414E-3],"categories":[],"categories_nodes":[],"categories_segments":[],"categories_sizes":[],"default_left":[0,0,0,0,0,0,0,0,0,0,0,0,0],"id":32,"left_children":[1,3,-1,5,-1,-1,7,9,11,-1,-1,-1,-1],"loss_changes":[2.397811E4,1.6194961E4,0E0,6.1077227E3,0E0,0E0,5.8988086E3,9.5279785E2,3.6243516E3,0E0,0E0,0E0,0E0],"parents":[2147483647,0,0,1,1,3,3,6,6,7,7,8,8],"right_children":[2,4,-1,6,-1,-1,8,10,12,-1,-1,-1,-1],"split_conditions":[1.1885052E0,2.0129232E0,1.6028523E-2,1.6110802E-1,1.6026424E-2,-1.5360973E-2,5E1,7.818937E-1,-2.962091E-1,-1.21535E-2,-2.9075318E-3,-1.5344601E-2,4.301414E-3],"split_indices":[6,7,0,6,0,0,1,5,7,0,0,0,0],"split_type":[0,0,0,0,0,0,0,0,0,0,0,0,0],"sum_hessian":[3.3366008E4,2.6074715E4,7.2912915E3,2.272117E4,3.3535437E3,6.9015767E3,1.5819594E4,7.539706E3,8.279888E3,6.179021E3,1.3606849E3,1.0788369E3,7.2010513E3],"tree_param":{"num_deleted":"0","num_feature":"8","num_nodes":"13","size_leaf_vector":"1"}},{"base_weights":[-1.2978449E-4,-4.4514182E-1,1.5932634E-2,-7.45568E-1,1.5930545E-2,-1.527922E-2,-4.0524882E-1,-1.1926345E0,6.2243003E-2,-1.34284925E-2,-6.0340995E-3,-1.5374581E-2,3.2675315E-3],"categories":[],"categories_nodes":[],"categories_segments":[],"categories_sizes":[],"default_left":[0,0,0,0,0,0,0,0,0,0,0,0,0],"id":33,"left_children":[1,3,-1,5,-1,-1,7,9,11,-1,-1,-1,-1],"loss_changes":[2.3590004E4,1.5925085E4,0E0,6.0340645E3,0E0,0E0,5.8145894E3,5.200508E2,4.1948174E3,0E0,0E0,0E0,0E0],"parents":[2147483647,0,0,1,1,3,3,6,6,7,7,8,8],"right_children":[2,4,-1,6,-1,-1,8,10,12,-1,-1,-1,-1],"split_conditions":[1.1885052E0,2.0129232E0,1.5932634E-2,1.6110802E-1,1.5930545E-2,-1.527922E-2,4.3E1,4.4287232E-1,-2.962091E-1,-1.34284925E-2,-6.0340995E-3,-1.5374581E-2,3.2675315E-3],"split_indices":[6,7,0,6,0,0,1,5,7,0,0,0,0],"split_type":[0,0,0,0,0,0,0,0,0,0,0,0,0],"sum_hessian":[3.32665E4,2.6004527E4,7.2619736E3,2.2664465E4,3.3400635E3,6.869286E3,1.5795179E4,5.883755E3,9.911424E3,4.687469E3,1.1962859E3,1.4056343E3,8.505789E3],"tree_param":{"num_deleted":"0","num_feature":"8","num_nodes":"13","size_leaf_vector":"1"}},{"base_weights":[-1.3147456E-4,-4.4192052E-1,1.583883E-2,-7.400225E-1,1.583675E-2,-1.519914E-2,-4.0184966E-1,-1.1843882E0,6.1657995E-2,-1.3343192E-2,-5.979093E-3,-1.529251E-2,3.2350384E-3],"categories":[],"categories_nodes":[],"categories_segments":[],"categories_sizes":[],"default_left":[0,0,0,0,0,0,0,0,0,0,0,0,0],"id":34,"left_children":[1,3,-1,5,-1,-1,7,9,11,-1,-1,-1,-1],"loss_changes":[2.3210273E4,1.5660949E4,0E0,5.961872E3,0E0,0E0,5.72041E3,5.150596E2,4.1268193E3,0E0,0E0,0E0,0E0],"parents":[2147483647,0,0,1,1,3,3,6,6,7,7,8,8],"right_children":[2,4,-1,6,-1,-1,8,10,12,-1,-1,-1,-1],"split_conditions":[1.1885052E0,2.0129232E0,1.583883E-2,1.6110802E-1,1.583675E-2,-1.519914E-2,4.3E1,4.4287232E-1,-2.962091E-1,-1.3343192E-2,-5.979093E-3,-1.529251E-2,3.2350384E-3],"split_indices":[6,7,0,6,0,0,1,5,7,0,0,0,0],"split_type":[0,0,0,0,0,0,0,0,0,0,0,0,0],"sum_hessian":[3.3164996E4,2.5932908E4,7.232088E3,2.2606586E4,3.3263218E3,6.8365938E3,1.5769992E4,5.865586E3,9.904406E3,4.670353E3,1.1952329E3,1.3990842E3,8.505321E3],"tree_param":{"num_deleted":"0","num_feature":"8","num_nodes":"13","size_leaf_vector":"1"}},{"base_weights":[-1.3303463E-4,-4.3874264E-1,1.5747052E-2,-7.345471E-1,1.5744975E-2,-1.5120681E-2,-3.9848894E-1,-1.0076939E0,1.8975504E-1,-1.1816202E-2,-2.2747505E-3,-1.5103039E-2,4.380588E-3],"categories":[],"categories_nodes":[],"categories_segments":[],"categories_sizes":[],"default_left":[0,0,0,0,0,0,0,0,0,0,0,0,0],"id":35,"left_children":[1,3,-1,5,-1,-1,7,9,11,-1,-1,-1,-1],"loss_changes":[2.2838576E4,1.5402221E4,0E0,5.8912734E3,0E0,0E0,5.642752E3,1.0493862E3,3.382515E3,0E0,0E0,0E0,0E0],"parents":[2147483647,0,0,1,1,3,3,6,6,7,7,8,8],"right_children":[2,4,-1,6,-1,-1,8,10,12,-1,-1,-1,-1],"split_conditions":[1.1885052E0,2.0129232E0,1.5747052E-2,1.6110802E-1,1.5744975E-2,-1.5120681E-2,5.1E1,8.075086E-1,-2.962091E-1,-1.1816202E-2,-2.2747505E-3,-1.5103039E-2,4.380588E-3],"split_indices":[6,7,0,6,0,0,1,5,7,0,0,0,0],"split_type":[0,0,0,0,0,0,0,0,0,0,0,0,0],"sum_hessian":[3.3061965E4,2.5860307E4,7.2016567E3,2.2547979E4,3.3123289E3,6.8035176E3,1.5744461E4,7.734079E3,8.0103813E3,6.3238516E3,1.4102278E3,1.0202134E3,6.990168E3],"tree_param":{"num_deleted":"0","num_feature":"8","num_nodes":"13","size_leaf_vector":"1"}},{"base_weights":[-1.3366791E-4,-4.355914E-1,1.5657227E-2,-7.29111E-1,1.5655164E-2,-1.5043801E-2,-3.9514247E-1,-1.1692302E0,6.1336994E-2,-1.3185508E-2,-5.8824504E-3,-1.5142026E-2,3.1837365E-3],"categories":[],"categories_nodes":[],"categories_segments":[],"categories_sizes":[],"default_left":[0,0,0,0,0,0,0,0,0,0,0,0,0],"id":36,"left_children":[1,3,-1,5,-1,-1,7,9,11,-1,-1,-1,-1],"loss_changes":[2.2474467E4,1.5148459E4,0E0,5.822551E3,0E0,0E0,5.5549746E3,5.051289E2,4.005606E3,0E0,0E0,0E0,0E0],"parents":[2147483647,0,0,1,1,3,3,6,6,7,7,8,8],"right_children":[2,4,-1,6,-1,-1,8,10,12,-1,-1,-1,-1],"split_conditions":[1.1885052E0,2.0129232E0,1.5657227E-2,1.6110802E-1,1.5655164E-2,-1.5043801E-2,4.3E1,4.4287232E-1,-2.962091E-1,-1.3185508E-2,-5.8824504E-3,-1.5142026E-2,3.1837365E-3],"split_indices":[6,7,0,6,0,0,1,5,7,0,0,0,0],"split_type":[0,0,0,0,0,0,0,0,0,0,0,0,0],"sum_hessian":[3.295832E4,2.5787621E4,7.1707017E3,2.2489525E4,3.2980952E3,6.7700757E3,1.5719449E4,5.8305576E3,9.888892E3,4.637414E3,1.1931437E3,1.3863273E3,8.502564E3],"tree_param":{"num_deleted":"0","num_feature":"8","num_nodes":"13","size_leaf_vector":"1"}},{"base_weights":[-1.3516484E-4,-4.3249628E-1,1.556931E-2,-7.237692E-1,1.55672515E-2,-1.49684595E-2,-3.9185524E-1,-9.9374E-1,1.8727313E-1,-1.1666717E-2,-2.2191047E-3,-1.495057E-2,4.306232E-3],"categories":[],"categories_nodes":[],"categories_segments":[],"categories_sizes":[],"default_left":[0,0,0,0,0,0,0,0,0,0,0,0,0],"id":37,"left_children":[1,3,-1,5,-1,-1,7,9,11,-1,-1,-1,-1],"loss_changes":[2.2118125E4,1.4900113E4,0E0,5.754993E3,0E0,0E0,5.4707324E3,1.0269697E3,3.2754797E3,0E0,0E0,0E0,0E0],"parents":[2147483647,0,0,1,1,3,3,6,6,7,7,8,8],"right_children":[2,4,-1,6,-1,-1,8,10,12,-1,-1,-1,-1],"split_conditions":[1.1885052E0,2.0129232E0,1.556931E-2,1.6110802E-1,1.55672515E-2,-1.49684595E-2,5.1E1,8.075086E-1,-2.962091E-1,-1.1666717E-2,-2.2191047E-3,-1.495057E-2,4.306232E-3],"split_indices":[6,7,0,6,0,0,1,5,7,0,0,0,0],"split_type":[0,0,0,0,0,0,0,0,0,0,0,0,0],"sum_hessian":[3.285248E4,2.5713234E4,7.1392456E3,2.2429604E4,3.2836313E3,6.7362856E3,1.5693317E4,7.6951133E3,7.9982036E3,6.286161E3,1.4089525E3,1.01009094E3,6.988113E3],"tree_param":{"num_deleted":"0","num_feature":"8","num_nodes":"13","size_leaf_vector":"1"}},{"base_weights":[-1.357068E-4,-4.294257E-1,1.5483239E-2,-7.1846354E-1,1.5481188E-2,-1.4894609E-2,-3.8858098E-1,-1.1544626E0,6.1017107E-2,-1.3032398E-2,-5.787646E-3,-1.4997402E-2,3.1333927E-3],"categories":[],"categories_nodes":[],"categories_segments":[],"categories_sizes":[],"default_left":[0,0,0,0,0,0,0,0,0,0,0,0,0],"id":38,"left_children":[1,3,-1,5,-1,-1,7,9,11,-1,-1,-1,-1],"loss_changes":[2.1768945E4,1.4656466E4,0E0,5.689204E3,0E0,0E0,5.3954243E3,4.9566113E2,3.8889539E3,0E0,0E0,0E0,0E0],"parents":[2147483647,0,0,1,1,3,3,6,6,7,7,8,8],"right_children":[2,4,-1,6,-1,-1,8,10,12,-1,-1,-1,-1],"split_conditions":[1.1885052E0,2.0129232E0,1.5483239E-2,1.6110802E-1,1.5481188E-2,-1.4894609E-2,4.3E1,4.4287232E-1,-2.962091E-1,-1.3032398E-2,-5.787646E-3,-1.4997402E-2,3.1333927E-3],"split_indices":[6,7,0,6,0,0,1,5,7,0,0,0,0],"split_type":[0,0,0,0,0,0,0,0,0,0,0,0,0],"sum_hessian":[3.2746148E4,2.563884E4,7.1073076E3,2.2369895E4,3.268946E3,6.702164E3,1.566773E4,5.794812E3,9.872918E3,4.603793E3,1.1910187E3,1.3733035E3,8.499615E3],"tree_param":{"num_deleted":"0","num_feature":"8","num_nodes":"13","size_leaf_vector":"1"}},{"base_weights":[-1.3708275E-4,-4.26409E-1,1.5398963E-2,-7.132487E-1,1.5396919E-2,-1.4822212E-2,-3.8536438E-1,-9.037384E-1,2.7023694E-1,-1.1846812E-2,-3.1136663E-3,-1.4800886E-2,5.071959E-3],"categories":[],"categories_nodes":[],"categories_segments":[],"categories_sizes":[],"default_left":[0,0,0,0,0,0,0,0,0,0,0,0,0],"id":39,"left_children":[1,3,-1,5,-1,-1,7,9,11,-1,-1,-1,-1],"loss_changes":[2.1427105E4,1.4417967E4,0E0,5.6244834E3,0E0,0E0,5.3161416E3,1.4534092E3,2.8657085E3,0E0,0E0,0E0,0E0],"parents":[2147483647,0,0,1,1,3,3,6,6,7,7,8,8],"right_children":[2,4,-1,6,-1,-1,8,10,12,-1,-1,-1,-1],"split_conditions":[1.1885052E0,2.0129232E0,1.5398963E-2,1.6110802E-1,1.5396919E-2,-1.4822212E-2,5.5E1,1.7918904E-1,-2.962091E-1,-1.1846812E-2,-3.1136663E-3,-1.4800886E-2,5.071959E-3],"split_indices":[6,7,0,6,0,0,1,5,7,0,0,0,0],"split_type":[0,0,0,0,0,0,0,0,0,0,0,0,0],"sum_hessian":[3.2637734E4,2.5562824E4,7.0749116E3,2.2308773E4,3.2540496E3,6.667728E3,1.5641046E4,8.734462E3,6.9065845E3,5.9239307E3,2.810531E3,8.2289874E2,6.0836855E3],"tree_param":{"num_deleted":"0","num_feature":"8","num_nodes":"13","size_leaf_vector":"1"}},{"base_weights":[-1.3720532E-4,-4.233889E-1,1.531643E-2,-7.080176E-1,1.5314388E-2,-1.4751231E-2,-3.821211E-1,-1.1403425E0,6.093052E-2,-1.283776E-2,-5.520681E-3,-1.4863534E-2,3.0883434E-3],"categories":[],"categories_nodes":[],"categories_segments":[],"categories_sizes":[],"default_left":[0,0,0,0,0,0,0,0,0,0,0,0,0],"id":40,"left_children":[1,3,-1,5,-1,-1,7,9,11,-1,-1,-1,-1],"loss_changes":[2.1091748E4,1.41834E4,0E0,5.5619873E3,0E0,0E0,5.2464688E3,4.8531396E2,3.7819258E3,0E0,0E0,0E0,0E0],"parents":[2147483647,0,0,1,1,3,3,6,6,7,7,8,8],"right_children":[2,4,-1,6,-1,-1,8,10,12,-1,-1,-1,-1],"split_conditions":[1.1885052E0,2.0129232E0,1.531643E-2,1.6110802E-1,1.5314388E-2,-1.4751231E-2,4.3E1,5.136901E-1,-2.962091E-1,-1.283776E-2,-5.520681E-3,-1.4863534E-2,3.0883434E-3],"split_indices":[6,7,0,6,0,0,1,5,7,0,0,0,0],"split_type":[0,0,0,0,0,0,0,0,0,0,0,0,0],"sum_hessian":[3.2530498E4,2.5488424E4,7.042074E3,2.2249473E4,3.238951E3,6.632994E3,1.5616479E4,5.759064E3,9.857414E3,4.6291895E3,1.1298749E3,1.3605553E3,8.496859E3],"tree_param":{"num_deleted":"0","num_feature":"8","num_nodes":"13","size_leaf_vector":"1"}},{"base_weights":[-1.3860411E-4,-4.204467E-1,1.5235591E-2,-7.0292366E-1,1.5233552E-2,-1.4681625E-2,-3.7897238E-1,-1.1327934E0,6.036201E-2,-1.2807608E-2,-5.6537115E-3,-1.4791721E-2,3.057709E-3],"categories":[],"categories_nodes":[],"categories_segments":[],"categories_sizes":[],"default_left":[0,0,0,0,0,0,0,0,0,0,0,0,0],"id":41,"left_children":[1,3,-1,5,-1,-1,7,9,11,-1,-1,-1,-1],"loss_changes":[2.076362E4,1.3954236E4,0E0,5.499919E3,0E0,0E0,5.163255E3,4.8125635E2,3.7222014E3,0E0,0E0,0E0,0E0],"parents":[2147483647,0,0,1,1,3,3,6,6,7,7,8,8],"right_children":[2,4,-1,6,-1,-1,8,10,12,-1,-1,-1,-1],"split_conditions":[1.1885052E0,2.0129232E0,1.5235591E-2,1.6110802E-1,1.5233552E-2,-1.4681625E-2,4.3E1,4.4287232E-1,-2.962091E-1,-1.2807608E-2,-5.6537115E-3,-1.4791721E-2,3.057709E-3],"split_indices":[6,7,0,6,0,0,1,5,7,0,0,0,0],"split_type":[0,0,0,0,0,0,0,0,0,0,0,0,0],"sum_hessian":[3.2419748E4,2.5410932E4,7.0088164E3,2.2187273E4,3.2236582E3,6.5979766E3,1.5589298E4,5.739589E3,9.849709E3,4.5514453E3,1.1881432E3,1.353529E3,8.49618E3],"tree_param":{"num_deleted":"0","num_feature":"8","num_nodes":"13","size_leaf_vector":"1"}},{"base_weights":[-1.398973E-4,-4.1754037E-1,1.5156397E-2,-6.9788826E-1,1.5154363E-2,-1.4613358E-2,-3.7585688E-1,-8.860321E-1,2.6624084E-1,-1.16476E-2,-3.0239075E-3,-1.45913195E-2,4.962457E-3],"categories":[],"categories_nodes":[],"categories_segments":[],"categories_sizes":[],"default_left":[0,0,0,0,0,0,0,0,0,0,0,0,0],"id":42,"left_children":[1,3,-1,5,-1,-1,7,9,11,-1,-1,-1,-1],"loss_changes":[2.044206E4,1.3729565E4,0E0,5.4391133E3,0E0,0E0,5.0983574E3,1.4104746E3,2.7355032E3,0E0,0E0,0E0,0E0],"parents":[2147483647,0,0,1,1,3,3,6,6,7,7,8,8],"right_children":[2,4,-1,6,-1,-1,8,10,12,-1,-1,-1,-1],"split_conditions":[1.1885052E0,2.0129232E0,1.5156397E-2,1.6110802E-1,1.5154363E-2,-1.4613358E-2,5.5E1,1.7918904E-1,-2.962091E-1,-1.16476E-2,-3.0239075E-3,-1.45913195E-2,4.962457E-3],"split_indices":[6,7,0,6,0,0,1,5,7,0,0,0,0],"split_type":[0,0,0,0,0,0,0,0,0,0,0,0,0],"sum_hessian":[3.2307906E4,2.5332748E4,6.975158E3,2.2124566E4,3.208182E3,6.562693E3,1.5561872E4,8.671556E3,6.8903174E3,5.868133E3,2.8034226E3,8.098576E2,6.0804595E3],"tree_param":{"num_deleted":"0","num_feature":"8","num_nodes":"13","size_leaf_vector":"1"}},{"base_weights":[-1.3982292E-4,-4.1462797E-1,1.5078801E-2,-6.928326E-1,1.50767695E-2,-1.4546397E-2,-3.7271342E-1,-1.1191844E0,6.0266726E-2,-1.2619438E-2,-5.3912555E-3,-1.466535E-2,3.0138576E-3],"categories":[],"categories_nodes":[],"categories_segments":[],"categories_sizes":[],"default_left":[0,0,0,0,0,0,0,0,0,0,0,0,0],"id":43,"left_children":[1,3,-1,5,-1,-1,7,9,11,-1,-1,-1,-1],"loss_changes":[2.0126453E4,1.3508502E4,0E0,5.380374E3,0E0,0E0,5.0219346E3,4.716587E2,3.6209832E3,0E0,0E0,0E0,0E0],"parents":[2147483647,0,0,1,1,3,3,6,6,7,7,8,8],"right_children":[2,4,-1,6,-1,-1,8,10,12,-1,-1,-1,-1],"split_conditions":[1.1885052E0,2.0129232E0,1.5078801E-2,1.6110802E-1,1.50767695E-2,-1.4546397E-2,4.3E1,5.136901E-1,-2.962091E-1,-1.2619438E-2,-5.3912555E-3,-1.466535E-2,3.0138576E-3],"split_indices":[6,7,0,6,0,0,1,5,7,0,0,0,0],"split_type":[0,0,0,0,0,0,0,0,0,0,0,0,0],"sum_hessian":[3.219742E4,2.52563E4,6.9411177E3,2.2063773E4,3.192529E3,6.527156E3,1.5536616E4,5.7029585E3,9.833658E3,4.5756577E3,1.1273007E3,1.3404767E3,8.493182E3],"tree_param":{"num_deleted":"0","num_feature":"8","num_nodes":"13","size_leaf_vector":"1"}},{"base_weights":[-1.4111865E-4,-4.1179058E-1,1.5002759E-2,-6.879096E-1,1.5000733E-2,-1.4480708E-2,-3.69662E-1,-8.739842E-1,2.63058E-1,-1.1511278E-2,-2.9651925E-3,-1.4458385E-2,4.8847524E-3],"categories":[],"categories_nodes":[],"categories_segments":[],"categories_sizes":[],"default_left":[0,0,0,0,0,0,0,0,0,0,0,0,0],"id":44,"left_children":[1,3,-1,5,-1,-1,7,9,11,-1,-1,-1,-1],"loss_changes":[1.981752E4,1.3292473E4,0E0,5.3219717E3,0E0,0E0,4.9493145E3,1.3809404E3,2.650964E3,0E0,0E0,0E0,0E0],"parents":[2147483647,0,0,1,1,3,3,6,6,7,7,8,8],"right_children":[2,4,-1,6,-1,-1,8,10,12,-1,-1,-1,-1],"split_conditions":[1.1885052E0,2.0129232E0,1.5002759E-2,1.6110802E-1,1.5000733E-2,-1.4480708E-2,5.5E1,1.7918904E-1,-2.962091E-1,-1.1511278E-2,-2.9651925E-3,-1.4458385E-2,4.8847524E-3],"split_indices":[6,7,0,6,0,0,1,5,7,0,0,0,0],"split_type":[0,0,0,0,0,0,0,0,0,0,0,0,0],"sum_hessian":[3.2083568E4,2.5176855E4,6.906713E3,2.2000146E4,3.176709E3,6.4913823E3,1.5508764E4,8.629814E3,6.8789487E3,5.8305547E3,2.7992598E3,8.010144E2,6.077934E3],"tree_param":{"num_deleted":"0","num_feature":"8","num_nodes":"13","size_leaf_vector":"1"}},{"base_weights":[-1.4092983E-4,-4.0894595E-1,1.4928233E-2,-6.82965E-1,1.4926206E-2,-1.4416259E-2,-3.6658272E-1,-1.1058948E0,6.016592E-2,-1.2481653E-2,-5.3151897E-3,-1.4543594E-2,2.9707754E-3],"categories":[],"categories_nodes":[],"categories_segments":[],"categories_sizes":[],"default_left":[0,0,0,0,0,0,0,0,0,0,0,0,0],"id":45,"left_children":[1,3,-1,5,-1,-1,7,9,11,-1,-1,-1,-1],"loss_changes":[1.9514219E4,1.3079863E4,0E0,5.265532E3,0E0,0E0,4.8853E3,4.624126E2,3.5233042E3,0E0,0E0,0E0,0E0],"parents":[2147483647,0,0,1,1,3,3,6,6,7,7,8,8],"right_children":[2,4,-1,6,-1,-1,8,10,12,-1,-1,-1,-1],"split_conditions":[1.1885052E0,2.0129232E0,1.4928233E-2,1.6110802E-1,1.4926206E-2,-1.4416259E-2,4.3E1,5.136901E-1,-2.962091E-1,-1.2481653E-2,-5.3151897E-3,-1.4543594E-2,2.9707754E-3],"split_indices":[6,7,0,6,0,0,1,5,7,0,0,0,0],"split_type":[0,0,0,0,0,0,0,0,0,0,0,0,0],"sum_hessian":[3.1971154E4,2.5099193E4,6.8719604E3,2.1938463E4,3.1607297E3,6.4553833E3,1.548308E4,5.6658325E3,9.817248E3,4.540095E3,1.1257369E3,1.3272545E3,8.489993E3],"tree_param":{"num_deleted":"0","num_feature":"8","num_nodes":"13","size_leaf_vector":"1"}},{"base_weights":[-1.4217432E-4,-4.0617397E-1,1.4855176E-2,-6.78149E-1,1.4853152E-2,-1.4353014E-2,-3.6359298E-1,-1.1177443E0,4.9014065E-2,-1.2554543E-2,-5.787313E-3,-1.451213E-2,2.8628253E-3],"categories":[],"categories_nodes":[],"categories_segments":[],"categories_sizes":[],"default_left":[0,0,0,0,0,0,0,0,0,0,0,0,0],"id":46,"left_children":[1,3,-1,5,-1,-1,7,9,11,-1,-1,-1,-1],"loss_changes":[1.9217248E4,1.2872049E4,0E0,5.209384E3,0E0,0E0,4.809423E3,4.0498438E2,3.556803E3,0E0,0E0,0E0,0E0],"parents":[2147483647,0,0,1,1,3,3,6,6,7,7,8,8],"right_children":[2,4,-1,6,-1,-1,8,10,12,-1,-1,-1,-1],"split_conditions":[1.1885052E0,2.0129232E0,1.4855176E-2,1.6110802E-1,1.4853152E-2,-1.4353014E-2,4.2E1,4.4287232E-1,-2.962091E-1,-1.2554543E-2,-5.787313E-3,-1.451213E-2,2.8628253E-3],"split_indices":[6,7,0,6,0,0,1,5,7,0,0,0,0],"split_type":[0,0,0,0,0,0,0,0,0,0,0,0,0],"sum_hessian":[3.1855502E4,2.5018623E4,6.8368794E3,2.1874023E4,3.1445986E3,6.4191763E3,1.5454848E4,5.4647764E3,9.990071E3,4.351661E3,1.113115E3,1.363523E3,8.626548E3],"tree_param":{"num_deleted":"0","num_feature":"8","num_nodes":"13","size_leaf_vector":"1"}},{"base_weights":[-1.4340831E-4,-4.0342978E-1,1.4783553E-2,-6.733774E-1,1.4781528E-2,-1.4290947E-2,-3.6062768E-1,-8.572228E-1,2.5926375E-1,-1.132473E-2,-2.8789223E-3,-1.4267708E-2,4.7805225E-3],"categories":[],"categories_nodes":[],"categories_segments":[],"categories_sizes":[],"default_left":[0,0,0,0,0,0,0,0,0,0,0,0,0],"id":47,"left_children":[1,3,-1,5,-1,-1,7,9,11,-1,-1,-1,-1],"loss_changes":[1.892599E4,1.2668111E4,0E0,5.1543926E3,0E0,0E0,4.749401E3,1.3420264E3,2.5322468E3,0E0,0E0,0E0,0E0],"parents":[2147483647,0,0,1,1,3,3,6,6,7,7,8,8],"right_children":[2,4,-1,6,-1,-1,8,10,12,-1,-1,-1,-1],"split_conditions":[1.1885052E0,2.0129232E0,1.4783553E-2,1.6110802E-1,1.4781528E-2,-1.4290947E-2,5.5E1,1.7918904E-1,-2.962091E-1,-1.132473E-2,-2.8789223E-3,-1.4267708E-2,4.7805225E-3],"split_indices":[6,7,0,6,0,0,1,5,7,0,0,0,0],"split_type":[0,0,0,0,0,0,0,0,0,0,0,0,0],"sum_hessian":[3.1739256E4,2.493777E4,6.801486E3,2.1809447E4,3.1283235E3,6.3827715E3,1.5426675E4,8.564928E3,6.8617476E3,5.7729375E3,2.7919902E3,7.8750806E2,6.0742393E3],"tree_param":{"num_deleted":"0","num_feature":"8","num_nodes":"13","size_leaf_vector":"1"}},{"base_weights":[-1.4310765E-4,-4.006801E-1,1.4713322E-2,-6.6858864E-1,1.4711301E-2,-1.4230026E-2,-3.5763943E-1,-1.1436343E0,2.9128194E-2,-1.1810877E-2,5.5783964E-3,-1.445481E-2,2.6626112E-3],"categories":[],"categories_nodes":[],"categories_segments":[],"categories_sizes":[],"default_left":[0,0,0,0,0,0,0,0,0,0,0,0,0],"id":48,"left_children":[1,3,-1,5,-1,-1,7,9,11,-1,-1,-1,-1],"loss_changes":[1.8639951E4,1.2467404E4,0E0,5.1011494E3,0E0,0E0,4.6820366E3,3.2434375E2,3.610171E3,0E0,0E0,0E0,0E0],"parents":[2147483647,0,0,1,1,3,3,6,6,7,7,8,8],"right_children":[2,4,-1,6,-1,-1,8,10,12,-1,-1,-1,-1],"split_conditions":[1.1885052E0,2.0129232E0,1.4713322E-2,1.6110802E-1,1.4711301E-2,-1.4230026E-2,4E1,1E0,-2.962091E-1,-1.1810877E-2,5.5783964E-3,-1.445481E-2,2.6626112E-3],"split_indices":[6,7,0,6,0,0,1,2,7,0,0,0,0],"split_type":[0,0,0,0,0,0,0,0,0,0,0,0,0],"sum_hessian":[3.1624354E4,2.4858557E4,6.7657954E3,2.1746645E4,3.1119124E3,6.346184E3,1.5400462E4,5.0783027E3,1.0322159E4,4.969224E3,1.0907827E2,1.4292545E3,8.892904E3],"tree_param":{"num_deleted":"0","num_feature":"8","num_nodes":"13","size_leaf_vector":"1"}},{"base_weights":[-1.4379827E-4,-3.9797765E-1,1.4644447E-2,-6.638812E-1,1.4642424E-2,-1.4170223E-2,-3.5470518E-1,-8.4580076E-1,2.5639877E-1,-1.1201028E-2,-2.811073E-3,-1.4146303E-2,4.7082664E-3],"categories":[],"categories_nodes":[],"categories_segments":[],"categories_sizes":[],"default_left":[0,0,0,0,0,0,0,0,0,0,0,0,0],"id":49,"left_children":[1,3,-1,5,-1,-1,7,9,11,-1,-1,-1,-1],"loss_changes":[1.835955E4,1.2270766E4,0E0,5.048576E3,0E0,0E0,4.614147E3,1.3200635E3,2.4554297E3,0E0,0E0,0E0,0E0],"parents":[2147483647,0,0,1,1,3,3,6,6,7,7,8,8],"right_children":[2,4,-1,6,-1,-1,8,10,12,-1,-1,-1,-1],"split_conditions":[1.1885052E0,2.0129232E0,1.4644447E-2,1.6110802E-1,1.4642424E-2,-1.4170223E-2,5.5E1,1.7918904E-1,-2.962091E-1,-1.1201028E-2,-2.811073E-3,-1.4146303E-2,4.7082664E-3],"split_indices":[6,7,0,6,0,0,1,5,7,0,0,0,0],"split_type":[0,0,0,0,0,0,0,0,0,0,0,0,0],"sum_hessian":[3.1507729E4,2.4777904E4,6.7298237E3,2.1682533E4,3.0953718E3,6.309426E3,1.5373107E4,8.523259E3,6.8498486E3,5.735994E3,2.7872646E3,7.783781E2,6.0714707E3],"tree_param":{"num_deleted":"0","num_feature":"8","num_nodes":"13","size_leaf_vector":"1"}},{"base_weights":[-1.434666E-4,-3.9528787E-1,1.4576893E-2,-6.591913E-1,1.45748705E-2,-1.4111512E-2,-3.5177556E-1,-1.1308614E0,2.961764E-2,-1.1682852E-2,5.5750343E-3,-1.4343303E-2,2.62757E-3],"categories":[],"categories_nodes":[],"categories_segments":[],"categories_sizes":[],"default_left":[0,0,0,0,0,0,0,0,0,0,0,0,0],"id":50,"left_children":[1,3,-1,5,-1,-1,7,9,11,-1,-1,-1,-1],"loss_changes":[1.80843E4,1.2077526E4,0E0,4.997296E3,0E0,0E0,4.560382E3,3.1935938E2,3.5173586E3,0E0,0E0,0E0,0E0],"parents":[2147483647,0,0,1,1,3,3,6,6,7,7,8,8],"right_children":[2,4,-1,6,-1,-1,8,10,12,-1,-1,-1,-1],"split_conditions":[1.1885052E0,2.0129232E0,1.4576893E-2,1.6110802E-1,1.45748705E-2,-1.4111512E-2,4E1,1E0,-2.962091E-1,-1.1682852E-2,5.5750343E-3,-1.4343303E-2,2.62757E-3],"split_indices":[6,7,0,6,0,0,1,2,7,0,0,0,0],"split_type":[0,0,0,0,0,0,0,0,0,0,0,0,0],"sum_hessian":[3.139138E4,2.4697793E4,6.693588E3,2.1619084E4,3.07871E3,6.272509E3,1.5346575E4,5.0430293E3,1.0303546E4,4.933972E3,1.0905718E2,1.4147538E3,8.888792E3],"tree_param":{"num_deleted":"0","num_feature":"8","num_nodes":"13","size_leaf_vector":"1"}},{"base_weights":[-1.4397711E-4,-3.926437E-1,1.4510629E-2,-6.545801E-1,1.4508603E-2,-1.4053863E-2,-3.488986E-1,-1.0855714E0,4.905651E-2,-1.223827E-2,-5.522492E-3,-1.4224437E-2,2.7595619E-3],"categories":[],"categories_nodes":[],"categories_segments":[],"categories_sizes":[],"default_left":[0,0,0,0,0,0,0,0,0,0,0,0,0],"id":51,"left_children":[1,3,-1,5,-1,-1,7,9,11,-1,-1,-1,-1],"loss_changes":[1.7814418E4,1.1888174E4,0E0,4.946629E3,0E0,0E0,4.491283E3,3.9552295E2,3.3217356E3,0E0,0E0,0E0,0E0],"parents":[2147483647,0,0,1,1,3,3,6,6,7,7,8,8],"right_children":[2,4,-1,6,-1,-1,8,10,12,-1,-1,-1,-1],"split_conditions":[1.1885052E0,2.0129232E0,1.4510629E-2,1.6110802E-1,1.4508603E-2,-1.4053863E-2,4.2E1,4.4287232E-1,-2.962091E-1,-1.223827E-2,-5.522492E-3,-1.4224437E-2,2.7595619E-3],"split_indices":[6,7,0,6,0,0,1,5,7,0,0,0,0],"split_type":[0,0,0,0,0,0,0,0,0,0,0,0,0],"sum_hessian":[3.1273404E4,2.46163E4,6.657102E3,2.155437E4,3.0619326E3,6.235446E3,1.5318924E4,5.3722954E3,9.946628E3,4.2652896E3,1.1070061E3,1.3281271E3,8.618501E3],"tree_param":{"num_deleted":"0","num_feature":"8","num_nodes":"13","size_leaf_vector":"1"}},{"base_weights":[-1.451434E-4,-3.9004633E-1,1.4445614E-2,-6.500505E-1,1.4443589E-2,-1.3997254E-2,-3.4607628E-1,-8.298909E-1,2.5292513E-1,-1.1029829E-2,-2.7171404E-3,-1.3972064E-2,4.6104146E-3],"categories":[],"categories_nodes":[],"categories_segments":[],"categories_sizes":[],"default_left":[0,0,0,0,0,0,0,0,0,0,0,0,0],"id":52,"left_children":[1,3,-1,5,-1,-1,7,9,11,-1,-1,-1,-1],"loss_changes":[1.7549771E4,1.1702646E4,0E0,4.8965264E3,0E0,0E0,4.431629E3,1.2891431E3,2.3472158E3,0E0,0E0,0E0,0E0],"parents":[2147483647,0,0,1,1,3,3,6,6,7,7,8,8],"right_children":[2,4,-1,6,-1,-1,8,10,12,-1,-1,-1,-1],"split_conditions":[1.1885052E0,2.0129232E0,1.4445614E-2,1.6110802E-1,1.4443589E-2,-1.3997254E-2,5.5E1,1.7918904E-1,-2.962091E-1,-1.1029829E-2,-2.7171404E-3,-1.3972064E-2,4.6104146E-3],"split_indices":[6,7,0,6,0,0,1,5,7,0,0,0,0],"split_type":[0,0,0,0,0,0,0,0,0,0,0,0,0],"sum_hessian":[3.1153678E4,2.4533297E4,6.62038E3,2.148825E4,3.045047E3,6.1982476E3,1.5290003E4,8.458041E3,6.831962E3,5.6787134E3,2.7793276E3,7.6451263E2,6.067449E3],"tree_param":{"num_deleted":"0","num_feature":"8","num_nodes":"13","size_leaf_vector":"1"}},{"base_weights":[-1.4466811E-4,-3.874406E-1,1.4381822E-2,-6.4549977E-1,1.4379796E-2,-1.3941656E-2,-3.4323007E-1,-1.1118112E0,2.9945908E-2,-1.1493322E-2,5.656598E-3,-1.4177659E-2,2.5696445E-3],"categories":[],"categories_nodes":[],"categories_segments":[],"categories_sizes":[],"default_left":[0,0,0,0,0,0,0,0,0,0,0,0,0],"id":53,"left_children":[1,3,-1,5,-1,-1,7,9,11,-1,-1,-1,-1],"loss_changes":[1.72897E4,1.1519948E4,0E0,4.8479805E3,0E0,0E0,4.378017E3,3.1466016E2,3.3776775E3,0E0,0E0,0E0,0E0],"parents":[2147483647,0,0,1,1,3,3,6,6,7,7,8,8],"right_children":[2,4,-1,6,-1,-1,8,10,12,-1,-1,-1,-1],"split_conditions":[1.1885052E0,2.0129232E0,1.4381822E-2,1.6110802E-1,1.4379796E-2,-1.3941656E-2,4E1,1E0,-2.962091E-1,-1.1493322E-2,5.656598E-3,-1.4177659E-2,2.5696445E-3],"split_indices":[6,7,0,6,0,0,1,2,7,0,0,0,0],"split_type":[0,0,0,0,0,0,0,0,0,0,0,0,0],"sum_hessian":[3.103551E4,2.4452072E4,6.583438E3,2.1424012E4,3.0280605E3,6.160927E3,1.5263084E4,4.987994E3,1.027509E4,4.8791733E3,1.0882093E2,1.3921316E3,8.882958E3],"tree_param":{"num_deleted":"0","num_feature":"8","num_nodes":"13","size_leaf_vector":"1"}},{"base_weights":[-1.4522974E-4,-3.8487893E-1,1.4319221E-2,-6.4102536E-1,1.4317191E-2,-1.3887049E-2,-3.404355E-1,-1.1049901E0,2.9664973E-2,-1.1424138E-2,5.593332E-3,-1.4119024E-2,2.544122E-3],"categories":[],"categories_nodes":[],"categories_segments":[],"categories_sizes":[],"default_left":[0,0,0,0,0,0,0,0,0,0,0,0,0],"id":54,"left_children":[1,3,-1,5,-1,-1,7,9,11,-1,-1,-1,-1],"loss_changes":[1.7034613E4,1.1340886E4,0E0,4.7999727E3,0E0,0E0,4.3112534E3,3.1017725E2,3.3268564E3,0E0,0E0,0E0,0E0],"parents":[2147483647,0,0,1,1,3,3,6,6,7,7,8,8],"right_children":[2,4,-1,6,-1,-1,8,10,12,-1,-1,-1,-1],"split_conditions":[1.1885052E0,2.0129232E0,1.4319221E-2,1.6110802E-1,1.4317191E-2,-1.3887049E-2,4E1,1E0,-2.962091E-1,-1.1424138E-2,5.593332E-3,-1.4119024E-2,2.544122E-3],"split_indices":[6,7,0,6,0,0,1,2,7,0,0,0,0],"split_type":[0,0,0,0,0,0,0,0,0,0,0,0,0],"sum_hessian":[3.0915799E4,2.436951E4,6.546288E3,2.1358533E4,3.0109778E3,6.1234937E3,1.5235039E4,4.968699E3,1.026634E4,4.859738E3,1.0896187E2,1.3839789E3,8.882361E3],"tree_param":{"num_deleted":"0","num_feature":"8","num_nodes":"13","size_leaf_vector":"1"}},{"base_weights":[-1.4570155E-4,-3.8234386E-1,1.4257781E-2,-6.3659525E-1,1.4255747E-2,-1.3833405E-2,-3.376679E-1,-8.144392E-1,2.4964386E-1,-1.08687915E-2,-2.613693E-3,-1.3806791E-2,4.5163184E-3],"categories":[],"categories_nodes":[],"categories_segments":[],"categories_sizes":[],"default_left":[0,0,0,0,0,0,0,0,0,0,0,0,0],"id":55,"left_children":[1,3,-1,5,-1,-1,7,9,11,-1,-1,-1,-1],"loss_changes":[1.6784229E4,1.1165099E4,0E0,4.752794E3,0E0,0E0,4.2586074E3,1.264523E3,2.2447673E3,0E0,0E0,0E0,0E0],"parents":[2147483647,0,0,1,1,3,3,6,6,7,7,8,8],"right_children":[2,4,-1,6,-1,-1,8,10,12,-1,-1,-1,-1],"split_conditions":[1.1885052E0,2.0129232E0,1.4257781E-2,1.6110802E-1,1.4255747E-2,-1.3833405E-2,5.5E1,1.7918904E-1,-2.962091E-1,-1.08687915E-2,-2.613693E-3,-1.3806791E-2,4.5163184E-3],"split_indices":[6,7,0,6,0,0,1,5,7,0,0,0,0],"split_type":[0,0,0,0,0,0,0,0,0,0,0,0,0],"sum_hessian":[3.0795568E4,2.4286623E4,6.5089443E3,2.1292818E4,2.993806E3,6.085959E3,1.5206858E4,8.393086E3,6.813773E3,5.6224995E3,2.7705862E3,7.504849E2,6.063288E3],"tree_param":{"num_deleted":"0","num_feature":"8","num_nodes":"13","size_leaf_vector":"1"}},{"base_weights":[-1.4519093E-4,-3.7981647E-1,1.419747E-2,-6.3217485E-1,1.4195434E-2,-1.3780706E-2,-3.3490106E-1,-1.1142802E0,2.0374583E-2,-1.1523453E-2,6.371022E-3,-1.4051107E-2,2.4460584E-3],"categories":[],"categories_nodes":[],"categories_segments":[],"categories_sizes":[],"default_left":[0,0,0,0,0,0,0,0,0,0,0,0,0],"id":56,"left_children":[1,3,-1,5,-1,-1,7,9,11,-1,-1,-1,-1],"loss_changes":[1.6538238E4,1.0992224E4,0E0,4.706749E3,0E0,0E0,4.203455E3,3.1761816E2,3.3336458E3,0E0,0E0,0E0,0E0],"parents":[2147483647,0,0,1,1,3,3,6,6,7,7,8,8],"right_children":[2,4,-1,6,-1,-1,8,10,12,-1,-1,-1,-1],"split_conditions":[1.1885052E0,2.0129232E0,1.419747E-2,1.6110802E-1,1.4195434E-2,-1.3780706E-2,3.9E1,1E0,-2.962091E-1,-1.1523453E-2,6.371022E-3,-1.4051107E-2,2.4460584E-3],"split_indices":[6,7,0,6,0,0,1,2,7,0,0,0,0],"split_type":[0,0,0,0,0,0,0,0,0,0,0,0,0],"sum_hessian":[3.0675938E4,2.4204516E4,6.471421E3,2.1227965E4,2.9765513E3,6.048333E3,1.5179632E4,4.7522773E3,1.04273545E4,4.651522E3,1.0075543E2,1.4165815E3,9.010772E3],"tree_param":{"num_deleted":"0","num_feature":"8","num_nodes":"13","size_leaf_vector":"1"}},{"base_weights":[-1.4568413E-4,-3.773301E-1,1.4138263E-2,-6.2782556E-1,1.4136226E-2,-1.3728925E-2,-3.3218274E-1,-9.312657E-1,1.2408835E-1,-1.0889058E-2,-2.1906334E-3,-1.3785498E-2,3.2895415E-3],"categories":[],"categories_nodes":[],"categories_segments":[],"categories_sizes":[],"default_left":[0,0,0,0,0,0,0,0,0,0,0,0,0],"id":57,"left_children":[1,3,-1,5,-1,-1,7,9,11,-1,-1,-1,-1],"loss_changes":[1.6296884E4,1.0822733E4,0E0,4.661198E3,0E0,0E0,4.14193E3,7.352627E2,2.648576E3,0E0,0E0,0E0,0E0],"parents":[2147483647,0,0,1,1,3,3,6,6,7,7,8,8],"right_children":[2,4,-1,6,-1,-1,8,10,12,-1,-1,-1,-1],"split_conditions":[1.1885052E0,2.0129232E0,1.4138263E-2,1.6110802E-1,1.4136226E-2,-1.3728925E-2,4.8E1,8.075086E-1,-2.962091E-1,-1.0889058E-2,-2.1906334E-3,-1.3785498E-2,3.2895415E-3],"split_indices":[6,7,0,6,0,0,1,5,7,0,0,0,0],"split_type":[0,0,0,0,0,0,0,0,0,0,0,0,0],"sum_hessian":[3.0554953E4,2.4121225E4,6.433729E3,2.1162004E4,2.9592202E3,6.0106265E3,1.5151377E4,6.5500864E3,8.601291E3,5.3625923E3,1.1874943E3,1.031293E3,7.569998E3],"tree_param":{"num_deleted":"0","num_feature":"8","num_nodes":"13","size_leaf_vector":"1"}},{"base_weights":[-1.4594143E-4,-3.7488323E-1,1.4080132E-2,-6.235459E-1,1.4078089E-2,-1.3678042E-2,-3.2951054E-1,-1.1020693E0,2.0616254E-2,-1.1401528E-2,6.3665533E-3,-1.3947109E-2,2.4080467E-3],"categories":[],"categories_nodes":[],"categories_segments":[],"categories_sizes":[],"default_left":[0,0,0,0,0,0,0,0,0,0,0,0,0],"id":58,"left_children":[1,3,-1,5,-1,-1,7,9,11,-1,-1,-1,-1],"loss_changes":[1.6060024E4,1.0656531E4,0E0,4.6161396E3,0E0,0E0,4.0907092E3,3.130298E2,3.2437698E3,0E0,0E0,0E0,0E0],"parents":[2147483647,0,0,1,1,3,3,6,6,7,7,8,8],"right_children":[2,4,-1,6,-1,-1,8,10,12,-1,-1,-1,-1],"split_conditions":[1.1885052E0,2.0129232E0,1.4080132E-2,1.6110802E-1,1.4078089E-2,-1.3678042E-2,3.9E1,1E0,-2.962091E-1,-1.1401528E-2,6.3665533E-3,-1.3947109E-2,2.4080467E-3],"split_indices":[6,7,0,6,0,0,1,2,7,0,0,0,0],"split_type":[0,0,0,0,0,0,0,0,0,0,0,0,0],"sum_hessian":[3.0432598E4,2.4036717E4,6.395883E3,2.1094898E4,2.941817E3,5.972849E3,1.512205E4,4.7153745E3,1.0406675E4,4.6146436E3,1.0073111E2,1.400326E3,9.006349E3],"tree_param":{"num_deleted":"0","num_feature":"8","num_nodes":"13","size_leaf_vector":"1"}},{"base_weights":[-1.464157E-4,-3.724456E-1,1.40230525E-2,-6.192781E-1,1.4021003E-2,-1.362804E-2,-3.2684264E-1,-7.945676E-1,2.4531958E-1,-1.0661062E-2,-2.4847605E-3,-1.3599758E-2,4.3940316E-3],"categories":[],"categories_nodes":[],"categories_segments":[],"categories_sizes":[],"default_left":[0,0,0,0,0,0,0,0,0,0,0,0,0],"id":59,"left_children":[1,3,-1,5,-1,-1,7,9,11,-1,-1,-1,-1],"loss_changes":[1.5827299E4,1.0493076E4,0E0,4.572095E3,0E0,0E0,4.0397305E3,1.2313184E3,2.1161252E3,0E0,0E0,0E0,0E0],"parents":[2147483647,0,0,1,1,3,3,6,6,7,7,8,8],"right_children":[2,4,-1,6,-1,-1,8,10,12,-1,-1,-1,-1],"split_conditions":[1.1885052E0,2.0129232E0,1.40230525E-2,1.6110802E-1,1.4021003E-2,-1.362804E-2,5.5E1,1.7918904E-1,-2.962091E-1,-1.0661062E-2,-2.4847605E-3,-1.3599758E-2,4.3940316E-3],"split_indices":[6,7,0,6,0,0,1,5,7,0,0,0,0],"split_type":[0,0,0,0,0,0,0,0,0,0,0,0,0],"sum_hessian":[3.0310854E4,2.395296E4,6.357893E3,2.1028611E4,2.924348E3,5.93501E3,1.5093603E4,8.304522E3,6.7890796E3,5.545918E3,2.7586047E3,7.3163196E2,6.0574478E3],"tree_param":{"num_deleted":"0","num_feature":"8","num_nodes":"13","size_leaf_vector":"1"}},{"base_weights":[-1.4583113E-4,-3.7001476E-1,1.3966994E-2,-6.1501926E-1,1.3964941E-2,-1.3578896E-2,-3.24176E-1,-1.0906019E0,2.120517E-2,-1.1286961E-2,6.349837E-3,-1.3853464E-2,2.3774705E-3],"categories":[],"categories_nodes":[],"categories_segments":[],"categories_sizes":[],"default_left":[0,0,0,0,0,0,0,0,0,0,0,0,0],"id":60,"left_children":[1,3,-1,5,-1,-1,7,9,11,-1,-1,-1,-1],"loss_changes":[1.5598566E4,1.033229E4,0E0,4.5290547E3,0E0,0E0,3.9884114E3,3.0839355E2,3.1641206E3,0E0,0E0,0E0,0E0],"parents":[2147483647,0,0,1,1,3,3,6,6,7,7,8,8],"right_children":[2,4,-1,6,-1,-1,8,10,12,-1,-1,-1,-1],"split_conditions":[1.1885052E0,2.0129232E0,1.3966994E-2,1.6110802E-1,1.3964941E-2,-1.3578896E-2,3.9E1,1E0,-2.962091E-1,-1.1286961E-2,6.349837E-3,-1.3853464E-2,2.3774705E-3],"split_indices":[6,7,0,6,0,0,1,2,7,0,0,0,0],"split_type":[0,0,0,0,0,0,0,0,0,0,0,0,0],"sum_hessian":[3.018977E4,2.3869998E4,6.319772E3,2.0963178E4,2.9068188E3,5.8971187E3,1.5066061E4,4.6795786E3,1.0386481E4,4.578842E3,1.0073713E2,1.3849723E3,9.001509E3],"tree_param":{"num_deleted":"0","num_feature":"8","num_nodes":"13","size_leaf_vector":"1"}},{"base_weights":[-1.4627042E-4,-3.676234E-1,1.3911936E-2,-6.108293E-1,1.3909881E-2,-1.3530588E-2,-3.2155687E-1,-1.4132744E0,-8.220935E-2,-1.3948339E-2,-1.5155724E-2,-9.39587E-3,2.353856E-3],"categories":[],"categories_nodes":[],"categories_segments":[],"categories_sizes":[],"default_left":[0,0,0,0,0,0,0,0,0,0,0,0,0],"id":61,"left_children":[1,3,-1,5,-1,-1,7,9,11,-1,-1,-1,-1],"loss_changes":[1.5374056E4,1.0174611E4,0E0,4.486427E3,0E0,0E0,3.9294326E3,2.9873047E0,3.3591252E3,0E0,0E0,0E0,0E0],"parents":[2147483647,0,0,1,1,3,3,6,6,7,7,8,8],"right_children":[2,4,-1,6,-1,-1,8,10,12,-1,-1,-1,-1],"split_conditions":[1.1885052E0,2.0129232E0,1.3911936E-2,1.6110802E-1,1.3909881E-2,-1.3530588E-2,-2.962091E-1,7.818937E-1,3.9E1,-1.3948339E-2,-1.5155724E-2,-9.39587E-3,2.353856E-3],"split_indices":[6,7,0,6,0,0,7,5,1,0,0,0,0],"split_type":[0,0,0,0,0,0,0,0,0,0,0,0,0],"sum_hessian":[3.006741E4,2.378588E4,6.28153E3,2.0896646E4,2.8892344E3,5.8591846E3,1.5037462E4,2.7031023E3,1.2334359E4,2.3026538E3,4.0044843E2,3.3334465E3,9.000913E3],"tree_param":{"num_deleted":"0","num_feature":"8","num_nodes":"13","size_leaf_vector":"1"}},{"base_weights":[-1.4728328E-4,-3.6525163E-1,1.3857855E-2,-6.066712E-1,1.3855794E-2,-1.3483101E-2,-3.1895772E-1,-7.801357E-1,2.4229172E-1,-9.769512E-3,-3.1475938E-4,-1.34522235E-2,4.306032E-3],"categories":[],"categories_nodes":[],"categories_segments":[],"categories_sizes":[],"default_left":[0,0,0,0,0,0,0,0,0,0,0,0,0],"id":62,"left_children":[1,3,-1,5,-1,-1,7,9,11,-1,-1,-1,-1],"loss_changes":[1.5153499E4,1.0019678E4,0E0,4.444533E3,0E0,0E0,3.8853245E3,1.2140894E3,2.024815E3,0E0,0E0,0E0,0E0],"parents":[2147483647,0,0,1,1,3,3,6,6,7,7,8,8],"right_children":[2,4,-1,6,-1,-1,8,10,12,-1,-1,-1,-1],"split_conditions":[1.1885052E0,2.0129232E0,1.3857855E-2,1.6110802E-1,1.3855794E-2,-1.3483101E-2,5.5E1,8.075086E-1,-2.962091E-1,-9.769512E-3,-3.1475938E-4,-1.34522235E-2,4.306032E-3],"split_indices":[6,7,0,6,0,0,1,5,7,0,0,0,0],"split_type":[0,0,0,0,0,0,0,0,0,0,0,0,0],"sum_hessian":[2.994503E4,2.370185E4,6.2431797E3,2.083025E4,2.8715996E3,5.8212163E3,1.5009034E4,8.238817E3,6.7702163E3,6.523536E3,1.7152815E3,7.172735E2,6.052943E3],"tree_param":{"num_deleted":"0","num_feature":"8","num_nodes":"13","size_leaf_vector":"1"}},{"base_weights":[-1.4642117E-4,-3.6288476E-1,1.3804726E-2,-6.025197E-1,1.3802658E-2,-1.3436415E-2,-3.1635815E-1,-1.4039103E0,-7.9822876E-2,-1.3852803E-2,-1.5068622E-2,-9.283566E-3,2.3248075E-3],"categories":[],"categories_nodes":[],"categories_segments":[],"categories_sizes":[],"default_left":[0,0,0,0,0,0,0,0,0,0,0,0,0],"id":63,"left_children":[1,3,-1,5,-1,-1,7,9,11,-1,-1,-1,-1],"loss_changes":[1.4936652E4,9.867224E3,0E0,4.403582E3,0E0,0E0,3.8540537E3,3.0458984E0,3.2615957E3,0E0,0E0,0E0,0E0],"parents":[2147483647,0,0,1,1,3,3,6,6,7,7,8,8],"right_children":[2,4,-1,6,-1,-1,8,10,12,-1,-1,-1,-1],"split_conditions":[1.1885052E0,2.0129232E0,1.3804726E-2,1.6110802E-1,1.3802658E-2,-1.3436415E-2,-2.962091E-1,7.818937E-1,3.9E1,-1.3852803E-2,-1.5068622E-2,-9.283566E-3,2.3248075E-3],"split_indices":[6,7,0,6,0,0,7,5,1,0,0,0,0],"split_type":[0,0,0,0,0,0,0,0,0,0,0,0,0],"sum_hessian":[2.9823379E4,2.3618646E4,6.2047314E3,2.0764727E4,2.8539202E3,5.783222E3,1.4981504E4,2.6754177E3,1.2306087E4,2.2777063E3,3.977115E2,3.3102134E3,8.995873E3],"tree_param":{"num_deleted":"0","num_feature":"8","num_nodes":"13","size_leaf_vector":"1"}},{"base_weights":[-1.474056E-4,-3.6055645E-1,1.37525285E-2,-5.984349E-1,1.37504535E-2,-1.3390513E-2,-3.1380573E-1,-1.3983246E0,-7.9109654E-2,-1.3799899E-2,-1.4994698E-2,-9.223844E-3,2.3017265E-3],"categories":[],"categories_nodes":[],"categories_segments":[],"categories_sizes":[],"default_left":[0,0,0,0,0,0,0,0,0,0,0,0,0],"id":64,"left_children":[1,3,-1,5,-1,-1,7,9,11,-1,-1,-1,-1],"loss_changes":[1.4723767E4,9.717695E3,0E0,4.362988E3,0E0,0E0,3.8061582E3,2.8637695E0,3.2067742E3,0E0,0E0,0E0,0E0],"parents":[2147483647,0,0,1,1,3,3,6,6,7,7,8,8],"right_children":[2,4,-1,6,-1,-1,8,10,12,-1,-1,-1,-1],"split_conditions":[1.1885052E0,2.0129232E0,1.37525285E-2,1.6110802E-1,1.37504535E-2,-1.3390513E-2,-2.962091E-1,7.818937E-1,3.9E1,-1.3799899E-2,-1.4994698E-2,-9.223844E-3,2.3017265E-3],"split_indices":[6,7,0,6,0,0,7,5,1,0,0,0,0],"split_type":[0,0,0,0,0,0,0,0,0,0,0,0,0],"sum_hessian":[2.9700576E4,2.3534379E4,6.1661963E3,2.0698178E4,2.8362002E3,5.74521E3,1.4952969E4,2.6593386E3,1.229363E4,2.2636482E3,3.9569058E2,3.2983958E3,8.995234E3],"tree_param":{"num_deleted":"0","num_feature":"8","num_nodes":"13","size_leaf_vector":"1"}},{"base_weights":[-1.4844681E-4,-3.5824946E-1,1.3701239E-2,-5.9438634E-1,1.3699158E-2,-1.3345376E-2,-3.1127656E-1,-1.3928375E0,-7.840312E-2,-1.3747915E-2,-1.49221765E-2,-9.164619E-3,2.278878E-3],"categories":[],"categories_nodes":[],"categories_segments":[],"categories_sizes":[],"default_left":[0,0,0,0,0,0,0,0,0,0,0,0,0],"id":65,"left_children":[1,3,-1,5,-1,-1,7,9,11,-1,-1,-1,-1],"loss_changes":[1.4514581E4,9.570783E3,0E0,4.323014E3,0E0,0E0,3.7590957E3,2.690918E0,3.1529138E3,0E0,0E0,0E0,0E0],"parents":[2147483647,0,0,1,1,3,3,6,6,7,7,8,8],"right_children":[2,4,-1,6,-1,-1,8,10,12,-1,-1,-1,-1],"split_conditions":[1.1885052E0,2.0129232E0,1.3701239E-2,1.6110802E-1,1.3699158E-2,-1.3345376E-2,-2.962091E-1,7.818937E-1,3.9E1,-1.3747915E-2,-1.49221765E-2,-9.164619E-3,2.278878E-3],"split_indices":[6,7,0,6,0,0,7,5,1,0,0,0,0],"split_type":[0,0,0,0,0,0,0,0,0,0,0,0,0],"sum_hessian":[2.9577588E4,2.3450004E4,6.1275835E3,2.0631559E4,2.8184446E3,5.707189E3,1.492437E4,2.6432124E3,1.2281158E4,2.2495598E3,3.9365256E2,3.2865798E3,8.994578E3],"tree_param":{"num_deleted":"0","num_feature":"8","num_nodes":"13","size_leaf_vector":"1"}},{"base_weights":[-1.494419E-4,-3.5596317E-1,1.36508355E-2,-5.90373E-1,1.3648749E-2,-1.3300989E-2,-3.0877E-1,-1.3874466E0,-7.770292E-2,-1.3696831E-2,-1.4851025E-2,-9.1058845E-3,2.2562617E-3],"categories":[],"categories_nodes":[],"categories_segments":[],"categories_sizes":[],"default_left":[0,0,0,0,0,0,0,0,0,0,0,0,0],"id":66,"left_children":[1,3,-1,5,-1,-1,7,9,11,-1,-1,-1,-1],"loss_changes":[1.4309018E4,9.426434E3,0E0,4.283648E3,0E0,0E0,3.7128486E3,2.5249023E0,3.099996E3,0E0,0E0,0E0,0E0],"parents":[2147483647,0,0,1,1,3,3,6,6,7,7,8,8],"right_children":[2,4,-1,6,-1,-1,8,10,12,-1,-1,-1,-1],"split_conditions":[1.1885052E0,2.0129232E0,1.36508355E-2,1.6110802E-1,1.3648749E-2,-1.3300989E-2,-2.962091E-1,7.818937E-1,3.9E1,-1.3696831E-2,-1.4851025E-2,-9.1058845E-3,2.2562617E-3],"split_indices":[6,7,0,6,0,0,7,5,1,0,0,0,0],"split_type":[0,0,0,0,0,0,0,0,0,0,0,0,0],"sum_hessian":[2.9454445E4,2.3365541E4,6.088903E3,2.0564883E4,2.8006584E3,5.6691675E3,1.4895716E4,2.627043E3,1.2268673E4,2.2354448E3,3.9159827E2,3.274767E3,8.993906E3],"tree_param":{"num_deleted":"0","num_feature":"8","num_nodes":"13","size_leaf_vector":"1"}},{"base_weights":[-1.5040129E-4,-3.5369727E-1,1.3601299E-2,-5.8639425E-1,1.3599207E-2,-1.3257334E-2,-3.062859E-1,-1.3821497E0,-7.70092E-2,-1.3646626E-2,-1.4781205E-2,-9.047627E-3,2.2338727E-3],"categories":[],"categories_nodes":[],"categories_segments":[],"categories_sizes":[],"default_left":[0,0,0,0,0,0,0,0,0,0,0,0,0],"id":67,"left_children":[1,3,-1,5,-1,-1,7,9,11,-1,-1,-1,-1],"loss_changes":[1.4106994E4,9.284589E3,0E0,4.2448706E3,0E0,0E0,3.6673938E3,2.3671875E0,3.0480017E3,0E0,0E0,0E0,0E0],"parents":[2147483647,0,0,1,1,3,3,6,6,7,7,8,8],"right_children":[2,4,-1,6,-1,-1,8,10,12,-1,-1,-1,-1],"split_conditions":[1.1885052E0,2.0129232E0,1.3601299E-2,1.6110802E-1,1.3599207E-2,-1.3257334E-2,-2.962091E-1,7.818937E-1,3.9E1,-1.3646626E-2,-1.4781205E-2,-9.047627E-3,2.2338727E-3],"split_indices":[6,7,0,6,0,0,7,5,1,0,0,0,0],"split_type":[0,0,0,0,0,0,0,0,0,0,0,0,0],"sum_hessian":[2.9331176E4,2.328101E4,6.0501655E3,2.0498164E4,2.7828457E3,5.6311504E3,1.4867015E4,2.6108354E3,1.2256179E4,2.2213066E3,3.8952863E2,3.2629602E3,8.993219E3],"tree_param":{"num_deleted":"0","num_feature":"8","num_nodes":"13","size_leaf_vector":"1"}},{"base_weights":[-1.5121275E-4,-3.5145116E-1,1.35526145E-2,-5.8244944E-1,1.35505125E-2,-1.3214396E-2,-3.0382374E-1,-1.3769445E0,-7.632171E-2,-1.3597281E-2,-1.4712685E-2,-8.98984E-3,2.2117116E-3],"categories":[],"categories_nodes":[],"categories_segments":[],"categories_sizes":[],"default_left":[0,0,0,0,0,0,0,0,0,0,0,0,0],"id":68,"left_children":[1,3,-1,5,-1,-1,7,9,11,-1,-1,-1,-1],"loss_changes":[1.3908437E4,9.145194E3,0E0,4.2066675E3,0E0,0E0,3.622713E3,2.2143555E0,2.9969143E3,0E0,0E0,0E0,0E0],"parents":[2147483647,0,0,1,1,3,3,6,6,7,7,8,8],"right_children":[2,4,-1,6,-1,-1,8,10,12,-1,-1,-1,-1],"split_conditions":[1.1885052E0,2.0129232E0,1.35526145E-2,1.6110802E-1,1.35505125E-2,-1.3214396E-2,-2.962091E-1,7.818937E-1,3.9E1,-1.3597281E-2,-1.4712685E-2,-8.98984E-3,2.2117116E-3],"split_indices":[6,7,0,6,0,0,7,5,1,0,0,0,0],"split_type":[0,0,0,0,0,0,0,0,0,0,0,0,0],"sum_hessian":[2.9207809E4,2.319643E4,6.01138E3,2.0431418E4,2.7650107E3,5.5931465E3,1.4838271E4,2.5945935E3,1.2243678E4,2.2071492E3,3.874444E2,3.2511616E3,8.992517E3],"tree_param":{"num_deleted":"0","num_feature":"8","num_nodes":"13","size_leaf_vector":"1"}},{"base_weights":[-1.521803E-4,-3.492247E-1,1.3504755E-2,-5.78538E-1,1.3502646E-2,-1.3172159E-2,-3.0138353E-1,-7.5009453E-1,2.3783866E-1,-9.4793355E-3,-8.311713E-5,-1.3131437E-2,4.133593E-3],"categories":[],"categories_nodes":[],"categories_segments":[],"categories_sizes":[],"default_left":[0,0,0,0,0,0,0,0,0,0,0,0,0],"id":69,"left_children":[1,3,-1,5,-1,-1,7,9,11,-1,-1,-1,-1],"loss_changes":[1.3713264E4,9.008204E3,0E0,4.1690215E3,0E0,0E0,3.583651E3,1.1863384E3,1.8319834E3,0E0,0E0,0E0,0E0],"parents":[2147483647,0,0,1,1,3,3,6,6,7,7,8,8],"right_children":[2,4,-1,6,-1,-1,8,10,12,-1,-1,-1,-1],"split_conditions":[1.1885052E0,2.0129232E0,1.3504755E-2,1.6110802E-1,1.3502646E-2,-1.3172159E-2,5.5E1,8.075086E-1,-2.962091E-1,-9.4793355E-3,-8.311713E-5,-1.3131437E-2,4.133593E-3],"split_indices":[6,7,0,6,0,0,1,5,7,0,0,0,0],"split_type":[0,0,0,0,0,0,0,0,0,0,0,0,0],"sum_hessian":[2.9084373E4,2.3111816E4,5.972555E3,2.0364658E4,2.7471582E3,5.5551646E3,1.4809494E4,8.082932E3,6.7265625E3,6.380837E3,1.7020948E3,6.831804E2,6.043382E3],"tree_param":{"num_deleted":"0","num_feature":"8","num_nodes":"13","size_leaf_vector":"1"}},{"base_weights":[-1.5116528E-4,-3.4699717E-1,1.3457704E-2,-5.7462317E-1,1.3455587E-2,-1.313061E-2,-2.9893705E-1,-1.3686621E0,-7.408153E-2,-1.3512526E-2,-1.4636647E-2,-8.883355E-3,2.1843535E-3],"categories":[],"categories_nodes":[],"categories_segments":[],"categories_sizes":[],"default_left":[0,0,0,0,0,0,0,0,0,0,0,0,0],"id":70,"left_children":[1,3,-1,5,-1,-1,7,9,11,-1,-1,-1,-1],"loss_changes":[1.3521219E4,8.873288E3,0E0,4.1322354E3,0E0,0E0,3.5556724E3,2.269043E0,2.909905E3,0E0,0E0,0E0,0E0],"parents":[2147483647,0,0,1,1,3,3,6,6,7,7,8,8],"right_children":[2,4,-1,6,-1,-1,8,10,12,-1,-1,-1,-1],"split_conditions":[1.1885052E0,2.0129232E0,1.3457704E-2,1.6110802E-1,1.3455587E-2,-1.313061E-2,-2.962091E-1,7.818937E-1,3.9E1,-1.3512526E-2,-1.4636647E-2,-8.883355E-3,2.1843535E-3],"split_indices":[6,7,0,6,0,0,7,5,1,0,0,0,0],"split_type":[0,0,0,0,0,0,0,0,0,0,0,0,0],"sum_hessian":[2.8962057E4,2.3028357E4,5.933699E3,2.0299066E4,2.729291E3,5.517209E3,1.4781857E4,2.5665752E3,1.2215282E4,2.1819478E3,3.8462726E2,3.2279314E3,8.987351E3],"tree_param":{"num_deleted":"0","num_feature":"8","num_nodes":"13","size_leaf_vector":"1"}},{"base_weights":[-1.5210222E-4,-3.4480807E-1,1.3411446E-2,-5.707756E-1,1.340932E-2,-1.3089731E-2,-2.965388E-1,-1.3636897E0,-7.342061E-2,-1.3465453E-2,-1.4570841E-2,-8.826858E-3,2.1626896E-3],"categories":[],"categories_nodes":[],"categories_segments":[],"categories_sizes":[],"default_left":[0,0,0,0,0,0,0,0,0,0,0,0,0],"id":71,"left_children":[1,3,-1,5,-1,-1,7,9,11,-1,-1,-1,-1],"loss_changes":[1.3332593E4,8.740942E3,0E0,4.0956685E3,0E0,0E0,3.512852E3,2.1235352E0,2.861194E3,0E0,0E0,0E0,0E0],"parents":[2147483647,0,0,1,1,3,3,6,6,7,7,8,8],"right_children":[2,4,-1,6,-1,-1,8,10,12,-1,-1,-1,-1],"split_conditions":[1.1885052E0,2.0129232E0,1.3411446E-2,1.6110802E-1,1.340932E-2,-1.3089731E-2,-2.962091E-1,7.818937E-1,3.9E1,-1.3465453E-2,-1.4570841E-2,-8.826858E-3,2.1626896E-3],"split_indices":[6,7,0,6,0,0,7,5,1,0,0,0,0],"split_type":[0,0,0,0,0,0,0,0,0,0,0,0,0],"sum_hessian":[2.883858E4,2.2943758E4,5.8948228E3,2.0232344E4,2.7114136E3,5.4792876E3,1.4753057E4,2.5502703E3,1.2202786E4,2.1677544E3,3.8251584E2,3.2161714E3,8.986615E3],"tree_param":{"num_deleted":"0","num_feature":"8","num_nodes":"13","size_leaf_vector":"1"}},{"base_weights":[-1.528846E-4,-3.426371E-1,1.3365961E-2,-5.669593E-1,1.3363828E-2,-1.304951E-2,-2.941612E-1,-1.3588015E0,-7.276551E-2,-1.3419169E-2,-1.4506227E-2,-4.893075E-3,4.8863445E-3],"categories":[],"categories_nodes":[],"categories_segments":[],"categories_sizes":[],"default_left":[0,0,0,0,0,0,0,0,0,0,0,0,0],"id":72,"left_children":[1,3,-1,5,-1,-1,7,9,11,-1,-1,-1,-1],"loss_changes":[1.3147135E4,8.610849E3,0E0,4.059622E3,0E0,0E0,3.4707397E3,1.9838867E0,2.8511328E3,0E0,0E0,0E0,0E0],"parents":[2147483647,0,0,1,1,3,3,6,6,7,7,8,8],"right_children":[2,4,-1,6,-1,-1,8,10,12,-1,-1,-1,-1],"split_conditions":[1.1885052E0,2.0129232E0,1.3365961E-2,1.6110802E-1,1.3363828E-2,-1.304951E-2,-2.962091E-1,7.818937E-1,1.3549295E-1,-1.3419169E-2,-1.4506227E-2,-4.893075E-3,4.8863445E-3],"split_indices":[6,7,0,6,0,0,7,5,5,0,0,0,0],"split_type":[0,0,0,0,0,0,0,0,0,0,0,0,0],"sum_hessian":[2.871511E4,2.2859176E4,5.855933E3,2.0165646E4,2.6935303E3,5.4414062E3,1.4724239E4,2.5339463E3,1.2190294E4,2.1535537E3,3.803925E2,6.9980654E3,5.192228E3],"tree_param":{"num_deleted":"0","num_feature":"8","num_nodes":"13","size_leaf_vector":"1"}},{"base_weights":[-1.5212625E-4,-3.4036723E-1,1.3321234E-2,-5.629564E-1,1.3319092E-2,-1.3009934E-2,-2.9164854E-1,-7.342017E-1,2.3664977E-1,-8.816375E-3,2.455532E-3,-1.2965466E-2,4.0539415E-3],"categories":[],"categories_nodes":[],"categories_segments":[],"categories_sizes":[],"default_left":[0,0,0,0,0,0,0,0,0,0,0,0,0],"id":73,"left_children":[1,3,-1,5,-1,-1,7,9,11,-1,-1,-1,-1],"loss_changes":[1.2963856E4,8.481398E3,0E0,4.0258862E3,0E0,0E0,3.4379937E3,1.1560586E3,1.7348376E3,0E0,0E0,0E0,0E0],"parents":[2147483647,0,0,1,1,3,3,6,6,7,7,8,8],"right_children":[2,4,-1,6,-1,-1,8,10,12,-1,-1,-1,-1],"split_conditions":[1.1885052E0,2.0129232E0,1.3321234E-2,1.6110802E-1,1.3319092E-2,-1.3009934E-2,5.5E1,1.3650104E0,-2.962091E-1,-8.816375E-3,2.455532E-3,-1.2965466E-2,4.0539415E-3],"split_indices":[6,7,0,6,0,0,1,5,7,0,0,0,0],"split_type":[0,0,0,0,0,0,0,0,0,0,0,0,0],"sum_hessian":[2.8599355E4,2.2782318E4,5.8170376E3,2.0106674E4,2.6756453E3,5.4035728E3,1.4703101E4,8.0006235E3,6.702477E3,6.9542344E3,1.0463892E3,6.6387604E2,6.038601E3],"tree_param":{"num_deleted":"0","num_feature":"8","num_nodes":"13","size_leaf_vector":"1"}},{"base_weights":[-1.5068775E-4,-3.3820245E-1,1.3277246E-2,-5.5914855E-1,1.3275095E-2,-1.2970988E-2,-2.8927281E-1,-1.3510044E0,-7.055065E-2,-1.3341071E-2,-1.4425584E-2,-4.8257886E-3,4.836917E-3],"categories":[],"categories_nodes":[],"categories_segments":[],"categories_sizes":[],"default_left":[0,0,0,0,0,0,0,0,0,0,0,0,0],"id":74,"left_children":[1,3,-1,5,-1,-1,7,9,11,-1,-1,-1,-1],"loss_changes":[1.2784298E4,8.355309E3,0E0,3.9912573E3,0E0,0E0,3.4082744E3,1.9536133E0,2.7796548E3,0E0,0E0,0E0,0E0],"parents":[2147483647,0,0,1,1,3,3,6,6,7,7,8,8],"right_children":[2,4,-1,6,-1,-1,8,10,12,-1,-1,-1,-1],"split_conditions":[1.1885052E0,2.0129232E0,1.3277246E-2,1.6110802E-1,1.3275095E-2,-1.2970988E-2,-2.962091E-1,7.818937E-1,1.3549295E-1,-1.3341071E-2,-1.4425584E-2,-4.8257886E-3,4.836917E-3],"split_indices":[6,7,0,6,0,0,7,5,5,0,0,0,0],"split_type":[0,0,0,0,0,0,0,0,0,0,0,0,0],"sum_hessian":[2.8477762E4,2.2699617E4,5.778145E3,2.0041857E4,2.6577607E3,5.3657915E3,1.4676065E4,2.5060247E3,1.217004E4,2.1287205E3,3.7730414E2,6.980678E3,5.1893623E3],"tree_param":{"num_deleted":"0","num_feature":"8","num_nodes":"13","size_leaf_vector":"1"}},{"base_weights":[-1.4998626E-4,-3.359696E-1,1.3233981E-2,-5.552103E-1,1.323182E-2,-1.2932659E-2,-2.8680497E-1,-1.3463303E0,-6.987399E-2,-1.3296853E-2,-1.4363625E-2,-8.697586E-3,2.1388636E-3],"categories":[],"categories_nodes":[],"categories_segments":[],"categories_sizes":[],"default_left":[0,0,0,0,0,0,0,0,0,0,0,0,0],"id":75,"left_children":[1,3,-1,5,-1,-1,7,9,11,-1,-1,-1,-1],"loss_changes":[1.2607065E4,8.23022E3,0E0,3.9584019E3,0E0,0E0,3.3684612E3,1.8222656E0,2.761608E3,0E0,0E0,0E0,0E0],"parents":[2147483647,0,0,1,1,3,3,6,6,7,7,8,8],"right_children":[2,4,-1,6,-1,-1,8,10,12,-1,-1,-1,-1],"split_conditions":[1.1885052E0,2.0129232E0,1.3233981E-2,1.6110802E-1,1.323182E-2,-1.2932659E-2,-2.962091E-1,7.818937E-1,3.9E1,-1.3296853E-2,-1.4363625E-2,-8.697586E-3,2.1388636E-3],"split_indices":[6,7,0,6,0,0,7,5,1,0,0,0,0],"split_type":[0,0,0,0,0,0,0,0,0,0,0,0,0],"sum_hessian":[2.836205E4,2.262279E4,5.739261E3,1.9982908E4,2.639881E3,5.32807E3,1.4654839E4,2.4896733E3,1.2165165E4,2.1145159E3,3.7515744E2,3.1849966E3,8.980169E3],"tree_param":{"num_deleted":"0","num_feature":"8","num_nodes":"13","size_leaf_vector":"1"}},{"base_weights":[-1.5092212E-4,-3.3386865E-1,1.3191427E-2,-5.5151504E-1,1.3189253E-2,-1.2894934E-2,-2.8450942E-1,-7.2241443E-1,2.3578072E-1,-9.928932E-3,-1.9748476E-3,-1.2848412E-2,3.996283E-3],"categories":[],"categories_nodes":[],"categories_segments":[],"categories_sizes":[],"default_left":[0,0,0,0,0,0,0,0,0,0,0,0,0],"id":76,"left_children":[1,3,-1,5,-1,-1,7,9,11,-1,-1,-1,-1],"loss_changes":[1.24336455E4,8.1087236E3,0E0,3.9242534E3,0E0,0E0,3.3327593E3,1.1275093E3,1.6661965E3,0E0,0E0,0E0,0E0],"parents":[2147483647,0,0,1,1,3,3,6,6,7,7,8,8],"right_children":[2,4,-1,6,-1,-1,8,10,12,-1,-1,-1,-1],"split_conditions":[1.1885052E0,2.0129232E0,1.3191427E-2,1.6110802E-1,1.3189253E-2,-1.2894934E-2,5.5E1,1.7918904E-1,-2.962091E-1,-9.928932E-3,-1.9748476E-3,-1.2848412E-2,3.996283E-3],"split_indices":[6,7,0,6,0,0,1,5,7,0,0,0,0],"split_type":[0,0,0,0,0,0,0,0,0,0,0,0,0],"sum_hessian":[2.8238848E4,2.2538451E4,5.7003955E3,1.9916443E4,2.6220088E3,5.2904116E3,1.4626031E4,7.9415737E3,6.6844575E3,5.2404517E3,2.7011223E3,6.495286E2,6.034929E3],"tree_param":{"num_deleted":"0","num_feature":"8","num_nodes":"13","size_leaf_vector":"1"}},{"base_weights":[-1.4995785E-4,-3.317669E-1,1.3149565E-2,-5.478179E-1,1.3147382E-2,-1.2857801E-2,-2.8221023E-1,-1.3389267E0,-6.778694E-2,-1.32222865E-2,-1.4288935E-2,-4.7451584E-3,4.7754706E-3],"categories":[],"categories_nodes":[],"categories_segments":[],"categories_sizes":[],"default_left":[0,0,0,0,0,0,0,0,0,0,0,0,0],"id":77,"left_children":[1,3,-1,5,-1,-1,7,9,11,-1,-1,-1,-1],"loss_changes":[1.2262925E4,7.989051E3,0E0,3.890811E3,0E0,0E0,3.307874E3,1.8105469E0,2.6923872E3,0E0,0E0,0E0,0E0],"parents":[2147483647,0,0,1,1,3,3,6,6,7,7,8,8],"right_children":[2,4,-1,6,-1,-1,8,10,12,-1,-1,-1,-1],"split_conditions":[1.1885052E0,2.0129232E0,1.3149565E-2,1.6110802E-1,1.3147382E-2,-1.2857801E-2,-2.962091E-1,7.818937E-1,1.3549295E-1,-1.32222865E-2,-1.4288935E-2,-4.7451584E-3,4.7754706E-3],"split_indices":[6,7,0,6,0,0,7,5,5,0,0,0,0],"split_type":[0,0,0,0,0,0,0,0,0,0,0,0,0],"sum_hessian":[2.8116777E4,2.2455223E4,5.661556E3,1.9851072E4,2.6041492E3,5.252824E3,1.4598249E4,2.4616333E3,1.2136615E4,2.089513E3,3.7212024E2,6.9518306E3,5.1847847E3],"tree_param":{"num_deleted":"0","num_feature":"8","num_nodes":"13","size_leaf_vector":"1"}},{"base_weights":[-1.4917985E-4,-3.2958645E-1,1.3108382E-2,-5.4397154E-1,1.310619E-2,-1.2821251E-2,-2.798065E-1,-1.3344538E0,-6.7137346E-2,-1.3180016E-2,-1.4229434E-2,-8.582206E-3,2.1127407E-3],"categories":[],"categories_nodes":[],"categories_segments":[],"categories_sizes":[],"default_left":[0,0,0,0,0,0,0,0,0,0,0,0,0],"id":78,"left_children":[1,3,-1,5,-1,-1,7,9,11,-1,-1,-1,-1],"loss_changes":[1.2094296E4,7.8701636E3,0E0,3.8592158E3,0E0,0E0,3.269612E3,1.6855469E0,2.6723604E3,0E0,0E0,0E0,0E0],"parents":[2147483647,0,0,1,1,3,3,6,6,7,7,8,8],"right_children":[2,4,-1,6,-1,-1,8,10,12,-1,-1,-1,-1],"split_conditions":[1.1885052E0,2.0129232E0,1.3108382E-2,1.6110802E-1,1.310619E-2,-1.2821251E-2,-2.962091E-1,7.818937E-1,3.9E1,-1.3180016E-2,-1.4229434E-2,-8.582206E-3,2.1127407E-3],"split_indices":[6,7,0,6,0,0,7,5,1,0,0,0,0],"split_type":[0,0,0,0,0,0,0,0,0,0,0,0,0],"sum_hessian":[2.800131E4,2.2378562E4,5.6227476E3,1.979226E4,2.5863035E3,5.2153125E3,1.4576946E4,2.445281E3,1.2131666E4,2.0753264E3,3.699546E2,3.157579E3,8.974086E3],"tree_param":{"num_deleted":"0","num_feature":"8","num_nodes":"13","size_leaf_vector":"1"}},{"base_weights":[-1.5013225E-4,-3.2753432E-1,1.3067863E-2,-5.403612E-1,1.3065658E-2,-1.2785267E-2,-2.7756917E-1,-1.330054E0,-6.653867E-2,-1.3138428E-2,-1.4170972E-2,-4.692501E-3,4.72562E-3],"categories":[],"categories_nodes":[],"categories_segments":[],"categories_sizes":[],"default_left":[0,0,0,0,0,0,0,0,0,0,0,0,0],"id":79,"left_children":[1,3,-1,5,-1,-1,7,9,11,-1,-1,-1,-1],"loss_changes":[1.1929248E4,7.754662E3,0E0,3.8263818E3,0E0,0E0,3.2313801E3,1.5673828E0,2.6315542E3,0E0,0E0,0E0,0E0],"parents":[2147483647,0,0,1,1,3,3,6,6,7,7,8,8],"right_children":[2,4,-1,6,-1,-1,8,10,12,-1,-1,-1,-1],"split_conditions":[1.1885052E0,2.0129232E0,1.3067863E-2,1.6110802E-1,1.3065658E-2,-1.2785267E-2,-2.962091E-1,7.818937E-1,1.3549295E-1,-1.3138428E-2,-1.4170972E-2,-4.692501E-3,4.72562E-3],"split_indices":[6,7,0,6,0,0,7,5,5,0,0,0,0],"split_type":[0,0,0,0,0,0,0,0,0,0,0,0,0],"sum_hessian":[2.7878523E4,2.2294547E4,5.5839766E3,1.9726072E4,2.5684753E3,5.1778813E3,1.4548191E4,2.428932E3,1.2119259E4,2.061151E3,3.6778104E2,6.937234E3,5.1820254E3],"tree_param":{"num_deleted":"0","num_feature":"8","num_nodes":"13","size_leaf_vector":"1"}},{"base_weights":[-1.4928455E-4,-3.2538757E-1,1.3027994E-2,-5.365744E-1,1.3025778E-2,-1.27498405E-2,-2.7520746E-1,-7.085232E-1,2.3644848E-1,-8.544296E-3,2.462453E-3,-1.2700415E-2,3.9411983E-3],"categories":[],"categories_nodes":[],"categories_segments":[],"categories_sizes":[],"default_left":[0,0,0,0,0,0,0,0,0,0,0,0,0],"id":80,"left_children":[1,3,-1,5,-1,-1,7,9,11,-1,-1,-1,-1],"loss_changes":[1.1766065E4,7.6397144E3,0E0,3.7955645E3,0E0,0E0,3.2211143E3,1.0960488E3,1.5830405E3,0E0,0E0,0E0,0E0],"parents":[2147483647,0,0,1,1,3,3,6,6,7,7,8,8],"right_children":[2,4,-1,6,-1,-1,8,10,12,-1,-1,-1,-1],"split_conditions":[1.1885052E0,2.0129232E0,1.3027994E-2,1.6110802E-1,1.3025778E-2,-1.27498405E-2,5.5E1,1.3650104E0,-2.962091E-1,-8.544296E-3,2.462453E-3,-1.2700415E-2,3.9411983E-3],"split_indices":[6,7,0,6,0,0,1,5,7,0,0,0,0],"split_type":[0,0,0,0,0,0,0,0,0,0,0,0,0],"sum_hessian":[2.7763295E4,2.2218043E4,5.545253E3,1.9667375E4,2.550668E3,5.1405356E3,1.4526839E4,7.8653643E3,6.6614746E3,6.822816E3,1.0425483E3,6.304746E2,6.031E3],"tree_param":{"num_deleted":"0","num_feature":"8","num_nodes":"13","size_leaf_vector":"1"}},{"base_weights":[-1.4781684E-4,-3.2333714E-1,1.298876E-2,-5.329662E-1,1.2986536E-2,-1.2714961E-2,-2.7296942E-1,-1.3230755E0,-6.44725E-2,-1.306848E-2,-1.4098797E-2,-9.956485E-3,1.6521495E-3],"categories":[],"categories_nodes":[],"categories_segments":[],"categories_sizes":[],"default_left":[0,0,0,0,0,0,0,0,0,0,0,0,0],"id":81,"left_children":[1,3,-1,5,-1,-1,7,9,11,-1,-1,-1,-1],"loss_changes":[1.1606086E4,7.52767E3,0E0,3.7639648E3,0E0,0E0,3.1748071E3,1.5415039E0,2.5880637E3,0E0,0E0,0E0,0E0],"parents":[2147483647,0,0,1,1,3,3,6,6,7,7,8,8],"right_children":[2,4,-1,6,-1,-1,8,10,12,-1,-1,-1,-1],"split_conditions":[1.1885052E0,2.0129232E0,1.298876E-2,1.6110802E-1,1.2986536E-2,-1.2714961E-2,-2.962091E-1,7.818937E-1,3.2E1,-1.306848E-2,-1.4098797E-2,-9.956485E-3,1.6521495E-3],"split_indices":[6,7,0,6,0,0,7,5,1,0,0,0,0],"split_type":[0,0,0,0,0,0,0,0,0,0,0,0,0],"sum_hessian":[2.7642684E4,2.2136105E4,5.5065786E3,1.960322E4,2.5328843E3,5.103281E3,1.449994E4,2.4011372E3,1.2098803E4,2.0364858E3,3.646515E2,2.393199E3,9.705604E3],"tree_param":{"num_deleted":"0","num_feature":"8","num_nodes":"13","size_leaf_vector":"1"}},{"base_weights":[-1.4895805E-4,-3.2130998E-1,1.295015E-2,-5.2939713E-1,1.2947914E-2,-1.2680617E-2,-2.7076107E-1,-1.3188614E0,-6.389024E-2,-1.3028683E-2,-1.40426345E-2,-4.618311E-3,4.672788E-3],"categories":[],"categories_nodes":[],"categories_segments":[],"categories_sizes":[],"default_left":[0,0,0,0,0,0,0,0,0,0,0,0,0],"id":82,"left_children":[1,3,-1,5,-1,-1,7,9,11,-1,-1,-1,-1],"loss_changes":[1.1448759E4,7.417557E3,0E0,3.7326553E3,0E0,0E0,3.1381328E3,1.4287109E0,2.555499E3,0E0,0E0,0E0,0E0],"parents":[2147483647,0,0,1,1,3,3,6,6,7,7,8,8],"right_children":[2,4,-1,6,-1,-1,8,10,12,-1,-1,-1,-1],"split_conditions":[1.1885052E0,2.0129232E0,1.295015E-2,1.6110802E-1,1.2947914E-2,-1.2680617E-2,-2.962091E-1,7.818937E-1,1.3549295E-1,-1.3028683E-2,-1.40426345E-2,-4.618311E-3,4.672788E-3],"split_indices":[6,7,0,6,0,0,7,5,5,0,0,0,0],"split_type":[0,0,0,0,0,0,0,0,0,0,0,0,0],"sum_hessian":[2.7521953E4,2.205399E4,5.4679624E3,1.9538863E4,2.5151267E3,5.0661206E3,1.4472743E4,2.384817E3,1.2087926E4,2.0223533E3,3.6246375E2,6.910702E3,5.1772236E3],"tree_param":{"num_deleted":"0","num_feature":"8","num_nodes":"13","size_leaf_vector":"1"}},{"base_weights":[-1.4814067E-4,-3.1921116E-1,1.2912152E-2,-5.256952E-1,1.2909903E-2,-1.2646796E-2,-2.6845983E-1,-6.975323E-1,2.3582019E-1,-8.424931E-3,2.4432328E-3,-1.2595826E-2,3.8892734E-3],"categories":[],"categories_nodes":[],"categories_segments":[],"categories_sizes":[],"default_left":[0,0,0,0,0,0,0,0,0,0,0,0,0],"id":83,"left_children":[1,3,-1,5,-1,-1,7,9,11,-1,-1,-1,-1],"loss_changes":[1.1293328E4,7.3082217E3,0E0,3.7029438E3,0E0,0E0,3.127263E3,1.066346E3,1.521831E3,0E0,0E0,0E0,0E0],"parents":[2147483647,0,0,1,1,3,3,6,6,7,7,8,8],"right_children":[2,4,-1,6,-1,-1,8,10,12,-1,-1,-1,-1],"split_conditions":[1.1885052E0,2.0129232E0,1.2912152E-2,1.6110802E-1,1.2909903E-2,-1.2646796E-2,5.5E1,1.3650104E0,-2.962091E-1,-8.424931E-3,2.4432328E-3,-1.2595826E-2,3.8892734E-3],"split_indices":[6,7,0,6,0,0,1,5,7,0,0,0,0],"split_type":[0,0,0,0,0,0,0,0,0,0,0,0,0],"sum_hessian":[2.7407242E4,2.1977832E4,5.429409E3,1.9480434E4,2.4973984E3,5.02906E3,1.4451373E4,7.80771E3,6.6436636E3,6.7664004E3,1.0413097E3,6.163662E2,6.0272974E3],"tree_param":{"num_deleted":"0","num_feature":"8","num_nodes":"13","size_leaf_vector":"1"}},{"base_weights":[-1.4654866E-4,-3.1720564E-1,1.287475E-2,-5.2216625E-1,1.2872491E-2,-1.2613489E-2,-2.6627758E-1,-1.3121974E0,-6.188474E-2,-1.2961868E-2,-1.3973708E-2,-8.369405E-3,2.0679338E-3],"categories":[],"categories_nodes":[],"categories_segments":[],"categories_sizes":[],"default_left":[0,0,0,0,0,0,0,0,0,0,0,0,0],"id":84,"left_children":[1,3,-1,5,-1,-1,7,9,11,-1,-1,-1,-1],"loss_changes":[1.1140914E4,7.201623E3,0E0,3.6724863E3,0E0,0E0,3.0837952E3,1.4047852E0,2.5133071E3,0E0,0E0,0E0,0E0],"parents":[2147483647,0,0,1,1,3,3,6,6,7,7,8,8],"right_children":[2,4,-1,6,-1,-1,8,10,12,-1,-1,-1,-1],"split_conditions":[1.1885052E0,2.0129232E0,1.287475E-2,1.6110802E-1,1.2872491E-2,-1.2613489E-2,-2.962091E-1,7.818937E-1,3.9E1,-1.2961868E-2,-1.3973708E-2,-8.369405E-3,2.0679338E-3],"split_indices":[6,7,0,6,0,0,7,5,1,0,0,0,0],"split_type":[0,0,0,0,0,0,0,0,0,0,0,0,0],"sum_hessian":[2.72873E4,2.1896375E4,5.390927E3,1.9416672E4,2.4797026E3,4.9921045E3,1.4424567E4,2.357147E3,1.206742E4,1.9978221E3,3.593247E2,3.1058525E3,8.961567E3],"tree_param":{"num_deleted":"0","num_feature":"8","num_nodes":"13","size_leaf_vector":"1"}},{"base_weights":[-1.4752799E-4,-3.1524366E-1,1.2837935E-2,-5.187144E-1,1.2835661E-2,-1.2580688E-2,-2.6415104E-1,-1.3081584E0,-6.1332922E-2,-1.2923761E-2,-1.3919715E-2,-4.5474297E-3,4.623398E-3],"categories":[],"categories_nodes":[],"categories_segments":[],"categories_sizes":[],"default_left":[0,0,0,0,0,0,0,0,0,0,0,0,0],"id":85,"left_children":[1,3,-1,5,-1,-1,7,9,11,-1,-1,-1,-1],"loss_changes":[1.0991141E4,7.0970977E3,0E0,3.6420044E3,0E0,0E0,3.0483916E3,1.298584E0,2.4839895E3,0E0,0E0,0E0,0E0],"parents":[2147483647,0,0,1,1,3,3,6,6,7,7,8,8],"right_children":[2,4,-1,6,-1,-1,8,10,12,-1,-1,-1,-1],"split_conditions":[1.1885052E0,2.0129232E0,1.2837935E-2,1.6110802E-1,1.2835661E-2,-1.2580688E-2,-2.962091E-1,7.818937E-1,1.3549295E-1,-1.2923761E-2,-1.3919715E-2,-4.5474297E-3,4.623398E-3],"split_indices":[6,7,0,6,0,0,7,5,5,0,0,0,0],"split_type":[0,0,0,0,0,0,0,0,0,0,0,0,0],"sum_hessian":[2.7165809E4,2.1813293E4,5.352516E3,1.9351252E4,2.4620403E3,4.9552563E3,1.4395996E4,2.3408757E3,1.2055121E4,1.9837495E3,3.5712622E2,6.883792E3,5.171329E3],"tree_param":{"num_deleted":"0","num_feature":"8","num_nodes":"13","size_leaf_vector":"1"}},{"base_weights":[-1.4668332E-4,-3.131902E-1,1.2801694E-2,-5.1509345E-1,1.2799408E-2,-1.2548379E-2,-2.6190794E-1,-6.8653435E-1,2.3474789E-1,-7.857114E-3,6.8430677E-3,-1.249603E-2,3.8338208E-3],"categories":[],"categories_nodes":[],"categories_segments":[],"categories_sizes":[],"default_left":[0,0,0,0,0,0,0,0,0,0,0,0,0],"id":86,"left_children":[1,3,-1,5,-1,-1,7,9,11,-1,-1,-1,-1],"loss_changes":[1.0843003E4,6.9930527E3,0E0,3.6133247E3,0E0,0E0,3.0318855E3,1.0542026E3,1.462473E3,0E0,0E0,0E0,0E0],"parents":[2147483647,0,0,1,1,3,3,6,6,7,7,8,8],"right_children":[2,4,-1,6,-1,-1,8,10,12,-1,-1,-1,-1],"split_conditions":[1.1885052E0,2.0129232E0,1.2801694E-2,1.6110802E-1,1.2799408E-2,-1.2548379E-2,5.5E1,1E0,-2.962091E-1,-7.857114E-3,6.8430677E-3,-1.249603E-2,3.8338208E-3],"split_indices":[6,7,0,6,0,0,1,2,7,0,0,0,0],"split_type":[0,0,0,0,0,0,0,0,0,0,0,0,0],"sum_hessian":[2.7051764E4,2.1737574E4,5.314188E3,1.929316E4,2.4444153E3,4.918521E3,1.4374639E4,7.7490454E3,6.6255933E3,7.226642E3,5.224034E2,6.0238684E2,6.0232065E3],"tree_param":{"num_deleted":"0","num_feature":"8","num_nodes":"13","size_leaf_vector":"1"}},{"base_weights":[-1.4467785E-4,-3.112166E-1,1.2766017E-2,-5.116205E-1,1.2763715E-2,-1.2516556E-2,-2.5976586E-1,-1.3016901E0,-5.938289E-2,-1.2861697E-2,-1.38386E-2,-9.746149E-3,1.6263549E-3],"categories":[],"categories_nodes":[],"categories_segments":[],"categories_sizes":[],"default_left":[0,0,0,0,0,0,0,0,0,0,0,0,0],"id":87,"left_children":[1,3,-1,5,-1,-1,7,9,11,-1,-1,-1,-1],"loss_changes":[1.0697639E4,6.891466E3,0E0,3.58408E3,0E0,0E0,2.9959019E3,1.1721191E0,2.44588E3,0E0,0E0,0E0,0E0],"parents":[2147483647,0,0,1,1,3,3,6,6,7,7,8,8],"right_children":[2,4,-1,6,-1,-1,8,10,12,-1,-1,-1,-1],"split_conditions":[1.1885052E0,2.0129232E0,1.2766017E-2,1.6110802E-1,1.2763715E-2,-1.2516556E-2,-2.962091E-1,7.818937E-1,3.2E1,-1.2861697E-2,-1.38386E-2,-9.746149E-3,1.6263549E-3],"split_indices":[6,7,0,6,0,0,7,5,1,0,0,0,0],"split_type":[0,0,0,0,0,0,0,0,0,0,0,0,0],"sum_hessian":[2.6933346E4,2.16574E4,5.2759453E3,1.923057E4,2.4268296E3,4.8819023E3,1.4348669E4,2.31354E3,1.2035129E4,1.959988E3,3.535519E2,2.348882E3,9.686247E3],